=== Run information ===

Scheme:       weka.classifiers.meta.MultiClassClassifier -M 3 -L -R 2.0 -S 1 -W weka.classifiers.trees.J48 -num-decimal-places 3 -- -C 0.25 -M 2
Relation:     SOformatnew-weka.filters.unsupervised.instance.RemoveWithValues-SInfinity-Cfirst-Lfirst-last-V-M-weka.filters.unsupervised.attribute.RenameNominalValues-R4-NAt least once each week:2-weka.filters.unsupervised.attribute.RenameNominalValues-R4-N2:At least once each week-weka.filters.unsupervised.attribute.RenameNominalValues-R4-NOnce or twice:2,Several times:4,At least once each week:6,At least once each day:8-weka.filters.unsupervised.attribute.RenameNominalValues-R6-NOnce or twice:2,Several times:4,At least once each week:6,At least once each day:8-weka.filters.unsupervised.attribute.RenameNominalValues-R9,10,11-NOnce or twice:2,Several times:4,At least once each week:6,At least once each day:8-weka.filters.unsupervised.attribute.RenameNominalValues-R12-19-NStrongly disagree:0,Disagree:2,Somewhat agree:4,Agree:6,Strongly agree:8-weka.filters.unsupervised.attribute.StringToNominal-R7-weka.filters.unsupervised.attribute.StringToNominal-R8-weka.filters.unsupervised.attribute.StringToNominal-R5-weka.filters.unsupervised.attribute.RenameNominalValues-R5,7,8-NOnce or twice:2,Several times:4,At least once each week:6,At least once each day:8-weka.filters.unsupervised.attribute.Copy-R2-weka.filters.unsupervised.attribute.Remove-R2-weka.filters.unsupervised.instance.RemoveWithValues-SInfinity-Clast-Lfirst-last-V-M-weka.filters.unsupervised.instance.RemoveWithValues-SInfinity-C4-Lfirst-last-V-M-weka.filters.unsupervised.instance.RemoveWithValues-SInfinity-C6-Lfirst-last-V-M-weka.filters.unsupervised.instance.RemoveWithValues-SInfinity-C7-Lfirst-last-V-M-weka.filters.unsupervised.instance.RemoveWithValues-SInfinity-C2-Lfirst-last-V-M-weka.filters.unsupervised.attribute.Discretize-B3-M-1.0-Rlast-precision6-weka.filters.unsupervised.attribute.Discretize-B3-M-1.0-Rlast-precision6-weka.filters.unsupervised.attribute.Discretize-B3-M-1.0-Rlast-precision6-unset-class-temporarily-weka.filters.supervised.instance.Resample-B1.0-S1-Z100.0
Instances:    32685
Attributes:   19
              StackOverflowDescribes
              StackOverflowDevices
              StackOverflowFoundAnswer
              StackOverflowCopiedCode
              StackOverflowJobListing
              StackOverflowCompanyPage
              StackOverflowJobSearch
              StackOverflowNewQuestion
              StackOverflowAnswer
              StackOverflowMetaChat
              StackOverflowAdsRelevant
              StackOverflowAdsDistracting
              StackOverflowModeration
              StackOverflowCommunity
              StackOverflowHelpful
              StackOverflowBetter
              StackOverflowWhatDo
              StackOverflowMakeMoney
              StackOverflowSatisfaction
Test mode:    10-fold cross-validation

=== Classifier model (full training set) ===

MultiClassClassifier

Classifier 1, 1 vs 2
J48 pruned tree
------------------

StackOverflowBetter <= 2
|   StackOverflowHelpful <= 2
|   |   StackOverflowCompanyPage <= 2
|   |   |   StackOverflowAdsRelevant <= 2
|   |   |   |   StackOverflowDescribes <= 1
|   |   |   |   |   StackOverflowAdsDistracting <= 2: '(-inf-3.333333]' (152.0/1.0)
|   |   |   |   |   StackOverflowAdsDistracting > 2: '(3.333333-6.666667]' (34.0)
|   |   |   |   StackOverflowDescribes > 1
|   |   |   |   |   StackOverflowAdsRelevant <= 0
|   |   |   |   |   |   StackOverflowDescribes <= 2
|   |   |   |   |   |   |   StackOverflowModeration <= 0: '(3.333333-6.666667]' (13.0)
|   |   |   |   |   |   |   StackOverflowModeration > 0
|   |   |   |   |   |   |   |   StackOverflowDevices = Desktop; iOS app: '(-inf-3.333333]' (0.0)
|   |   |   |   |   |   |   |   StackOverflowDevices = Desktop; iOS browser; iOS app; Android browser; Android app: '(-inf-3.333333]' (0.0)
|   |   |   |   |   |   |   |   StackOverflowDevices = Desktop; iOS browser; iOS app: '(-inf-3.333333]' (41.0)
|   |   |   |   |   |   |   |   StackOverflowDevices = Desktop; iOS browser; Android browser: '(-inf-3.333333]' (0.0)
|   |   |   |   |   |   |   |   StackOverflowDevices = Desktop: '(-inf-3.333333]' (316.0)
|   |   |   |   |   |   |   |   StackOverflowDevices = Desktop; Android app: '(-inf-3.333333]' (0.0)
|   |   |   |   |   |   |   |   StackOverflowDevices = Desktop; Android browser; Android app: '(-inf-3.333333]' (0.0)
|   |   |   |   |   |   |   |   StackOverflowDevices = Desktop; Android browser: '(-inf-3.333333]' (42.0)
|   |   |   |   |   |   |   |   StackOverflowDevices = Desktop; iOS browser
|   |   |   |   |   |   |   |   |   StackOverflowBetter <= 0: '(-inf-3.333333]' (39.0)
|   |   |   |   |   |   |   |   |   StackOverflowBetter > 0: '(3.333333-6.666667]' (8.0)
|   |   |   |   |   |   |   |   StackOverflowDevices = Desktop; Other phone browser: '(-inf-3.333333]' (0.0)
|   |   |   |   |   |   |   |   StackOverflowDevices = Desktop; Android browser; Other phone browser: '(-inf-3.333333]' (0.0)
|   |   |   |   |   |   |   |   StackOverflowDevices = Desktop; iOS browser; Android browser; Android app: '(-inf-3.333333]' (0.0)
|   |   |   |   |   |   |   |   StackOverflowDevices = Desktop; iOS browser; iOS app; Android browser; Android app; Other phone browser: '(-inf-3.333333]' (0.0)
|   |   |   |   |   |   |   |   StackOverflowDevices = Desktop; Android browser; Android app; Other phone browser: '(-inf-3.333333]' (0.0)
|   |   |   |   |   |   |   |   StackOverflowDevices = Android browser: '(-inf-3.333333]' (0.0)
|   |   |   |   |   |   |   |   StackOverflowDevices = Desktop; iOS app; Android app: '(-inf-3.333333]' (0.0)
|   |   |   |   |   |   |   |   StackOverflowDevices = Desktop; iOS app; Android browser; Android app: '(-inf-3.333333]' (0.0)
|   |   |   |   |   |   |   |   StackOverflowDevices = Desktop; iOS browser; Android browser; Other phone browser: '(-inf-3.333333]' (0.0)
|   |   |   |   |   |   |   |   StackOverflowDevices = iOS browser; Other phone browser: '(-inf-3.333333]' (0.0)
|   |   |   |   |   |   |   |   StackOverflowDevices = Desktop; iOS browser; Other phone browser: '(-inf-3.333333]' (0.0)
|   |   |   |   |   |   |   |   StackOverflowDevices = Other phone browser: '(-inf-3.333333]' (0.0)
|   |   |   |   |   |   |   |   StackOverflowDevices = iOS browser: '(-inf-3.333333]' (0.0)
|   |   |   |   |   |   |   |   StackOverflowDevices = Desktop; iOS browser; iOS app; Android browser: '(-inf-3.333333]' (0.0)
|   |   |   |   |   |   |   |   StackOverflowDevices = Desktop; Android app; Other phone browser: '(-inf-3.333333]' (0.0)
|   |   |   |   |   |   |   |   StackOverflowDevices = Desktop; iOS browser; Android app: '(-inf-3.333333]' (0.0)
|   |   |   |   |   |   |   |   StackOverflowDevices = Android app: '(-inf-3.333333]' (0.0)
|   |   |   |   |   |   |   |   StackOverflowDevices = Android browser; Other phone browser: '(-inf-3.333333]' (0.0)
|   |   |   |   |   |   |   |   StackOverflowDevices = iOS app; Android app; Other phone browser: '(-inf-3.333333]' (0.0)
|   |   |   |   |   |   |   |   StackOverflowDevices = Desktop; iOS browser; iOS app; Other phone browser: '(-inf-3.333333]' (0.0)
|   |   |   |   |   |   |   |   StackOverflowDevices = iOS browser; Android browser; Android app: '(-inf-3.333333]' (0.0)
|   |   |   |   |   |   |   |   StackOverflowDevices = Desktop; iOS app; Android browser: '(-inf-3.333333]' (0.0)
|   |   |   |   |   |   |   |   StackOverflowDevices = iOS browser; iOS app: '(-inf-3.333333]' (0.0)
|   |   |   |   |   |   |   |   StackOverflowDevices = Desktop; iOS browser; Android browser; Android app; Other phone browser: '(-inf-3.333333]' (0.0)
|   |   |   |   |   |   |   |   StackOverflowDevices = Desktop; iOS browser; iOS app; Android browser; Other phone browser: '(-inf-3.333333]' (0.0)
|   |   |   |   |   |   |   |   StackOverflowDevices = Desktop; iOS app; Other phone browser: '(-inf-3.333333]' (0.0)
|   |   |   |   |   |   |   |   StackOverflowDevices = iOS app: '(-inf-3.333333]' (0.0)
|   |   |   |   |   |   |   |   StackOverflowDevices = iOS browser; Android app: '(-inf-3.333333]' (0.0)
|   |   |   |   |   |   |   |   StackOverflowDevices = Desktop; iOS browser; iOS app; Android app: '(-inf-3.333333]' (0.0)
|   |   |   |   |   |   |   |   StackOverflowDevices = iOS app; Android browser; Android app: '(-inf-3.333333]' (0.0)
|   |   |   |   |   |   |   |   StackOverflowDevices = Android browser; Android app: '(-inf-3.333333]' (0.0)
|   |   |   |   |   |   |   |   StackOverflowDevices = iOS browser; Android browser: '(-inf-3.333333]' (0.0)
|   |   |   |   |   |   |   |   StackOverflowDevices = iOS browser; iOS app; Android browser: '(-inf-3.333333]' (0.0)
|   |   |   |   |   |   |   |   StackOverflowDevices = Desktop; iOS app; Android browser; Other phone browser: '(-inf-3.333333]' (0.0)
|   |   |   |   |   |   |   |   StackOverflowDevices = iOS browser; iOS app; Android browser; Android app: '(-inf-3.333333]' (0.0)
|   |   |   |   |   |   |   |   StackOverflowDevices = iOS app; Android browser: '(-inf-3.333333]' (0.0)
|   |   |   |   |   |   |   |   StackOverflowDevices = Android app; Other phone browser: '(-inf-3.333333]' (0.0)
|   |   |   |   |   |   |   |   StackOverflowDevices = iOS app; Other phone browser: '(-inf-3.333333]' (0.0)
|   |   |   |   |   |   StackOverflowDescribes > 2: '(-inf-3.333333]' (252.0)
|   |   |   |   |   StackOverflowAdsRelevant > 0
|   |   |   |   |   |   StackOverflowMakeMoney <= 2: '(3.333333-6.666667]' (12.0)
|   |   |   |   |   |   StackOverflowMakeMoney > 2
|   |   |   |   |   |   |   StackOverflowJobSearch <= 0
|   |   |   |   |   |   |   |   StackOverflowDevices = Desktop; iOS app: '(-inf-3.333333]' (0.0)
|   |   |   |   |   |   |   |   StackOverflowDevices = Desktop; iOS browser; iOS app; Android browser; Android app: '(-inf-3.333333]' (0.0)
|   |   |   |   |   |   |   |   StackOverflowDevices = Desktop; iOS browser; iOS app: '(-inf-3.333333]' (0.0)
|   |   |   |   |   |   |   |   StackOverflowDevices = Desktop; iOS browser; Android browser: '(-inf-3.333333]' (0.0)
|   |   |   |   |   |   |   |   StackOverflowDevices = Desktop: '(-inf-3.333333]' (41.0)
|   |   |   |   |   |   |   |   StackOverflowDevices = Desktop; Android app: '(-inf-3.333333]' (0.0)
|   |   |   |   |   |   |   |   StackOverflowDevices = Desktop; Android browser; Android app: '(-inf-3.333333]' (0.0)
|   |   |   |   |   |   |   |   StackOverflowDevices = Desktop; Android browser: '(-inf-3.333333]' (0.0)
|   |   |   |   |   |   |   |   StackOverflowDevices = Desktop; iOS browser: '(3.333333-6.666667]' (3.0)
|   |   |   |   |   |   |   |   StackOverflowDevices = Desktop; Other phone browser: '(-inf-3.333333]' (0.0)
|   |   |   |   |   |   |   |   StackOverflowDevices = Desktop; Android browser; Other phone browser: '(-inf-3.333333]' (0.0)
|   |   |   |   |   |   |   |   StackOverflowDevices = Desktop; iOS browser; Android browser; Android app: '(-inf-3.333333]' (0.0)
|   |   |   |   |   |   |   |   StackOverflowDevices = Desktop; iOS browser; iOS app; Android browser; Android app; Other phone browser: '(-inf-3.333333]' (0.0)
|   |   |   |   |   |   |   |   StackOverflowDevices = Desktop; Android browser; Android app; Other phone browser: '(-inf-3.333333]' (0.0)
|   |   |   |   |   |   |   |   StackOverflowDevices = Android browser: '(-inf-3.333333]' (0.0)
|   |   |   |   |   |   |   |   StackOverflowDevices = Desktop; iOS app; Android app: '(-inf-3.333333]' (47.0)
|   |   |   |   |   |   |   |   StackOverflowDevices = Desktop; iOS app; Android browser; Android app: '(-inf-3.333333]' (0.0)
|   |   |   |   |   |   |   |   StackOverflowDevices = Desktop; iOS browser; Android browser; Other phone browser: '(-inf-3.333333]' (0.0)
|   |   |   |   |   |   |   |   StackOverflowDevices = iOS browser; Other phone browser: '(-inf-3.333333]' (0.0)
|   |   |   |   |   |   |   |   StackOverflowDevices = Desktop; iOS browser; Other phone browser: '(-inf-3.333333]' (0.0)
|   |   |   |   |   |   |   |   StackOverflowDevices = Other phone browser: '(-inf-3.333333]' (0.0)
|   |   |   |   |   |   |   |   StackOverflowDevices = iOS browser: '(-inf-3.333333]' (0.0)
|   |   |   |   |   |   |   |   StackOverflowDevices = Desktop; iOS browser; iOS app; Android browser: '(-inf-3.333333]' (0.0)
|   |   |   |   |   |   |   |   StackOverflowDevices = Desktop; Android app; Other phone browser: '(-inf-3.333333]' (0.0)
|   |   |   |   |   |   |   |   StackOverflowDevices = Desktop; iOS browser; Android app: '(-inf-3.333333]' (0.0)
|   |   |   |   |   |   |   |   StackOverflowDevices = Android app: '(-inf-3.333333]' (0.0)
|   |   |   |   |   |   |   |   StackOverflowDevices = Android browser; Other phone browser: '(-inf-3.333333]' (0.0)
|   |   |   |   |   |   |   |   StackOverflowDevices = iOS app; Android app; Other phone browser: '(-inf-3.333333]' (0.0)
|   |   |   |   |   |   |   |   StackOverflowDevices = Desktop; iOS browser; iOS app; Other phone browser: '(-inf-3.333333]' (0.0)
|   |   |   |   |   |   |   |   StackOverflowDevices = iOS browser; Android browser; Android app: '(-inf-3.333333]' (0.0)
|   |   |   |   |   |   |   |   StackOverflowDevices = Desktop; iOS app; Android browser: '(-inf-3.333333]' (0.0)
|   |   |   |   |   |   |   |   StackOverflowDevices = iOS browser; iOS app: '(-inf-3.333333]' (0.0)
|   |   |   |   |   |   |   |   StackOverflowDevices = Desktop; iOS browser; Android browser; Android app; Other phone browser: '(-inf-3.333333]' (0.0)
|   |   |   |   |   |   |   |   StackOverflowDevices = Desktop; iOS browser; iOS app; Android browser; Other phone browser: '(-inf-3.333333]' (0.0)
|   |   |   |   |   |   |   |   StackOverflowDevices = Desktop; iOS app; Other phone browser: '(-inf-3.333333]' (0.0)
|   |   |   |   |   |   |   |   StackOverflowDevices = iOS app: '(-inf-3.333333]' (0.0)
|   |   |   |   |   |   |   |   StackOverflowDevices = iOS browser; Android app: '(-inf-3.333333]' (0.0)
|   |   |   |   |   |   |   |   StackOverflowDevices = Desktop; iOS browser; iOS app; Android app: '(-inf-3.333333]' (0.0)
|   |   |   |   |   |   |   |   StackOverflowDevices = iOS app; Android browser; Android app: '(-inf-3.333333]' (0.0)
|   |   |   |   |   |   |   |   StackOverflowDevices = Android browser; Android app: '(-inf-3.333333]' (0.0)
|   |   |   |   |   |   |   |   StackOverflowDevices = iOS browser; Android browser: '(-inf-3.333333]' (0.0)
|   |   |   |   |   |   |   |   StackOverflowDevices = iOS browser; iOS app; Android browser: '(-inf-3.333333]' (0.0)
|   |   |   |   |   |   |   |   StackOverflowDevices = Desktop; iOS app; Android browser; Other phone browser: '(-inf-3.333333]' (0.0)
|   |   |   |   |   |   |   |   StackOverflowDevices = iOS browser; iOS app; Android browser; Android app: '(-inf-3.333333]' (0.0)
|   |   |   |   |   |   |   |   StackOverflowDevices = iOS app; Android browser: '(-inf-3.333333]' (0.0)
|   |   |   |   |   |   |   |   StackOverflowDevices = Android app; Other phone browser: '(-inf-3.333333]' (0.0)
|   |   |   |   |   |   |   |   StackOverflowDevices = iOS app; Other phone browser: '(-inf-3.333333]' (0.0)
|   |   |   |   |   |   |   StackOverflowJobSearch > 0: '(3.333333-6.666667]' (9.0)
|   |   |   StackOverflowAdsRelevant > 2: '(-inf-3.333333]' (609.0)
|   |   StackOverflowCompanyPage > 2
|   |   |   StackOverflowHelpful <= 0: '(-inf-3.333333]' (41.0)
|   |   |   StackOverflowHelpful > 0: '(3.333333-6.666667]' (22.0)
|   StackOverflowHelpful > 2
|   |   StackOverflowJobListing <= 2
|   |   |   StackOverflowAnswer <= 2
|   |   |   |   StackOverflowAdsRelevant <= 6
|   |   |   |   |   StackOverflowCommunity <= 0
|   |   |   |   |   |   StackOverflowModeration <= 6
|   |   |   |   |   |   |   StackOverflowDevices = Desktop; iOS app: '(-inf-3.333333]' (0.0)
|   |   |   |   |   |   |   StackOverflowDevices = Desktop; iOS browser; iOS app; Android browser; Android app: '(-inf-3.333333]' (0.0)
|   |   |   |   |   |   |   StackOverflowDevices = Desktop; iOS browser; iOS app: '(-inf-3.333333]' (0.0)
|   |   |   |   |   |   |   StackOverflowDevices = Desktop; iOS browser; Android browser: '(-inf-3.333333]' (0.0)
|   |   |   |   |   |   |   StackOverflowDevices = Desktop
|   |   |   |   |   |   |   |   StackOverflowMakeMoney <= 4
|   |   |   |   |   |   |   |   |   StackOverflowFoundAnswer <= 4
|   |   |   |   |   |   |   |   |   |   StackOverflowFoundAnswer <= 2
|   |   |   |   |   |   |   |   |   |   |   StackOverflowAdsDistracting <= 2
|   |   |   |   |   |   |   |   |   |   |   |   StackOverflowCopiedCode <= 0: '(-inf-3.333333]' (269.0)
|   |   |   |   |   |   |   |   |   |   |   |   StackOverflowCopiedCode > 0
|   |   |   |   |   |   |   |   |   |   |   |   |   StackOverflowDescribes <= 1: '(-inf-3.333333]' (47.0)
|   |   |   |   |   |   |   |   |   |   |   |   |   StackOverflowDescribes > 1: '(3.333333-6.666667]' (6.0)
|   |   |   |   |   |   |   |   |   |   |   StackOverflowAdsDistracting > 2
|   |   |   |   |   |   |   |   |   |   |   |   StackOverflowModeration <= 4: '(3.333333-6.666667]' (27.0)
|   |   |   |   |   |   |   |   |   |   |   |   StackOverflowModeration > 4: '(-inf-3.333333]' (84.0)
|   |   |   |   |   |   |   |   |   |   StackOverflowFoundAnswer > 2
|   |   |   |   |   |   |   |   |   |   |   StackOverflowHelpful <= 4: '(3.333333-6.666667]' (48.0)
|   |   |   |   |   |   |   |   |   |   |   StackOverflowHelpful > 4
|   |   |   |   |   |   |   |   |   |   |   |   StackOverflowAdsRelevant <= 2: '(3.333333-6.666667]' (8.0)
|   |   |   |   |   |   |   |   |   |   |   |   StackOverflowAdsRelevant > 2
|   |   |   |   |   |   |   |   |   |   |   |   |   StackOverflowAdsRelevant <= 4: '(-inf-3.333333]' (81.0)
|   |   |   |   |   |   |   |   |   |   |   |   |   StackOverflowAdsRelevant > 4: '(3.333333-6.666667]' (6.0)
|   |   |   |   |   |   |   |   |   StackOverflowFoundAnswer > 4: '(-inf-3.333333]' (127.0)
|   |   |   |   |   |   |   |   StackOverflowMakeMoney > 4
|   |   |   |   |   |   |   |   |   StackOverflowModeration <= 0: '(-inf-3.333333]' (40.0)
|   |   |   |   |   |   |   |   |   StackOverflowModeration > 0: '(3.333333-6.666667]' (34.0)
|   |   |   |   |   |   |   StackOverflowDevices = Desktop; Android app: '(-inf-3.333333]' (0.0)
|   |   |   |   |   |   |   StackOverflowDevices = Desktop; Android browser; Android app: '(-inf-3.333333]' (0.0)
|   |   |   |   |   |   |   StackOverflowDevices = Desktop; Android browser: '(3.333333-6.666667]' (40.0)
|   |   |   |   |   |   |   StackOverflowDevices = Desktop; iOS browser: '(3.333333-6.666667]' (11.0)
|   |   |   |   |   |   |   StackOverflowDevices = Desktop; Other phone browser: '(3.333333-6.666667]' (8.0)
|   |   |   |   |   |   |   StackOverflowDevices = Desktop; Android browser; Other phone browser: '(-inf-3.333333]' (0.0)
|   |   |   |   |   |   |   StackOverflowDevices = Desktop; iOS browser; Android browser; Android app: '(-inf-3.333333]' (0.0)
|   |   |   |   |   |   |   StackOverflowDevices = Desktop; iOS browser; iOS app; Android browser; Android app; Other phone browser: '(-inf-3.333333]' (0.0)
|   |   |   |   |   |   |   StackOverflowDevices = Desktop; Android browser; Android app; Other phone browser: '(-inf-3.333333]' (0.0)
|   |   |   |   |   |   |   StackOverflowDevices = Android browser: '(-inf-3.333333]' (0.0)
|   |   |   |   |   |   |   StackOverflowDevices = Desktop; iOS app; Android app: '(-inf-3.333333]' (0.0)
|   |   |   |   |   |   |   StackOverflowDevices = Desktop; iOS app; Android browser; Android app: '(-inf-3.333333]' (0.0)
|   |   |   |   |   |   |   StackOverflowDevices = Desktop; iOS browser; Android browser; Other phone browser: '(-inf-3.333333]' (0.0)
|   |   |   |   |   |   |   StackOverflowDevices = iOS browser; Other phone browser: '(-inf-3.333333]' (0.0)
|   |   |   |   |   |   |   StackOverflowDevices = Desktop; iOS browser; Other phone browser: '(-inf-3.333333]' (0.0)
|   |   |   |   |   |   |   StackOverflowDevices = Other phone browser: '(-inf-3.333333]' (0.0)
|   |   |   |   |   |   |   StackOverflowDevices = iOS browser: '(-inf-3.333333]' (0.0)
|   |   |   |   |   |   |   StackOverflowDevices = Desktop; iOS browser; iOS app; Android browser: '(-inf-3.333333]' (0.0)
|   |   |   |   |   |   |   StackOverflowDevices = Desktop; Android app; Other phone browser: '(-inf-3.333333]' (0.0)
|   |   |   |   |   |   |   StackOverflowDevices = Desktop; iOS browser; Android app: '(-inf-3.333333]' (0.0)
|   |   |   |   |   |   |   StackOverflowDevices = Android app: '(-inf-3.333333]' (0.0)
|   |   |   |   |   |   |   StackOverflowDevices = Android browser; Other phone browser: '(-inf-3.333333]' (0.0)
|   |   |   |   |   |   |   StackOverflowDevices = iOS app; Android app; Other phone browser: '(-inf-3.333333]' (0.0)
|   |   |   |   |   |   |   StackOverflowDevices = Desktop; iOS browser; iOS app; Other phone browser: '(-inf-3.333333]' (0.0)
|   |   |   |   |   |   |   StackOverflowDevices = iOS browser; Android browser; Android app: '(-inf-3.333333]' (0.0)
|   |   |   |   |   |   |   StackOverflowDevices = Desktop; iOS app; Android browser: '(-inf-3.333333]' (0.0)
|   |   |   |   |   |   |   StackOverflowDevices = iOS browser; iOS app: '(-inf-3.333333]' (0.0)
|   |   |   |   |   |   |   StackOverflowDevices = Desktop; iOS browser; Android browser; Android app; Other phone browser: '(-inf-3.333333]' (0.0)
|   |   |   |   |   |   |   StackOverflowDevices = Desktop; iOS browser; iOS app; Android browser; Other phone browser: '(-inf-3.333333]' (0.0)
|   |   |   |   |   |   |   StackOverflowDevices = Desktop; iOS app; Other phone browser: '(-inf-3.333333]' (0.0)
|   |   |   |   |   |   |   StackOverflowDevices = iOS app: '(-inf-3.333333]' (0.0)
|   |   |   |   |   |   |   StackOverflowDevices = iOS browser; Android app: '(-inf-3.333333]' (0.0)
|   |   |   |   |   |   |   StackOverflowDevices = Desktop; iOS browser; iOS app; Android app: '(-inf-3.333333]' (0.0)
|   |   |   |   |   |   |   StackOverflowDevices = iOS app; Android browser; Android app: '(-inf-3.333333]' (0.0)
|   |   |   |   |   |   |   StackOverflowDevices = Android browser; Android app: '(-inf-3.333333]' (0.0)
|   |   |   |   |   |   |   StackOverflowDevices = iOS browser; Android browser: '(-inf-3.333333]' (0.0)
|   |   |   |   |   |   |   StackOverflowDevices = iOS browser; iOS app; Android browser: '(-inf-3.333333]' (0.0)
|   |   |   |   |   |   |   StackOverflowDevices = Desktop; iOS app; Android browser; Other phone browser: '(-inf-3.333333]' (0.0)
|   |   |   |   |   |   |   StackOverflowDevices = iOS browser; iOS app; Android browser; Android app: '(-inf-3.333333]' (0.0)
|   |   |   |   |   |   |   StackOverflowDevices = iOS app; Android browser: '(-inf-3.333333]' (0.0)
|   |   |   |   |   |   |   StackOverflowDevices = Android app; Other phone browser: '(-inf-3.333333]' (0.0)
|   |   |   |   |   |   |   StackOverflowDevices = iOS app; Other phone browser: '(-inf-3.333333]' (0.0)
|   |   |   |   |   |   StackOverflowModeration > 6
|   |   |   |   |   |   |   StackOverflowHelpful <= 4
|   |   |   |   |   |   |   |   StackOverflowDevices = Desktop; iOS app: '(-inf-3.333333]' (0.0)
|   |   |   |   |   |   |   |   StackOverflowDevices = Desktop; iOS browser; iOS app; Android browser; Android app: '(-inf-3.333333]' (0.0)
|   |   |   |   |   |   |   |   StackOverflowDevices = Desktop; iOS browser; iOS app: '(-inf-3.333333]' (0.0)
|   |   |   |   |   |   |   |   StackOverflowDevices = Desktop; iOS browser; Android browser: '(-inf-3.333333]' (0.0)
|   |   |   |   |   |   |   |   StackOverflowDevices = Desktop
|   |   |   |   |   |   |   |   |   StackOverflowWhatDo <= 2
|   |   |   |   |   |   |   |   |   |   StackOverflowFoundAnswer <= 0: '(-inf-3.333333]' (41.0)
|   |   |   |   |   |   |   |   |   |   StackOverflowFoundAnswer > 0: '(3.333333-6.666667]' (30.0)
|   |   |   |   |   |   |   |   |   StackOverflowWhatDo > 2: '(-inf-3.333333]' (131.0)
|   |   |   |   |   |   |   |   StackOverflowDevices = Desktop; Android app: '(3.333333-6.666667]' (11.0)
|   |   |   |   |   |   |   |   StackOverflowDevices = Desktop; Android browser; Android app: '(-inf-3.333333]' (0.0)
|   |   |   |   |   |   |   |   StackOverflowDevices = Desktop; Android browser: '(-inf-3.333333]' (94.0)
|   |   |   |   |   |   |   |   StackOverflowDevices = Desktop; iOS browser: '(-inf-3.333333]' (26.0)
|   |   |   |   |   |   |   |   StackOverflowDevices = Desktop; Other phone browser: '(-inf-3.333333]' (0.0)
|   |   |   |   |   |   |   |   StackOverflowDevices = Desktop; Android browser; Other phone browser: '(-inf-3.333333]' (38.0)
|   |   |   |   |   |   |   |   StackOverflowDevices = Desktop; iOS browser; Android browser; Android app: '(-inf-3.333333]' (0.0)
|   |   |   |   |   |   |   |   StackOverflowDevices = Desktop; iOS browser; iOS app; Android browser; Android app; Other phone browser: '(-inf-3.333333]' (0.0)
|   |   |   |   |   |   |   |   StackOverflowDevices = Desktop; Android browser; Android app; Other phone browser: '(-inf-3.333333]' (0.0)
|   |   |   |   |   |   |   |   StackOverflowDevices = Android browser: '(-inf-3.333333]' (0.0)
|   |   |   |   |   |   |   |   StackOverflowDevices = Desktop; iOS app; Android app: '(-inf-3.333333]' (0.0)
|   |   |   |   |   |   |   |   StackOverflowDevices = Desktop; iOS app; Android browser; Android app: '(-inf-3.333333]' (0.0)
|   |   |   |   |   |   |   |   StackOverflowDevices = Desktop; iOS browser; Android browser; Other phone browser: '(-inf-3.333333]' (0.0)
|   |   |   |   |   |   |   |   StackOverflowDevices = iOS browser; Other phone browser: '(-inf-3.333333]' (0.0)
|   |   |   |   |   |   |   |   StackOverflowDevices = Desktop; iOS browser; Other phone browser: '(-inf-3.333333]' (0.0)
|   |   |   |   |   |   |   |   StackOverflowDevices = Other phone browser: '(-inf-3.333333]' (0.0)
|   |   |   |   |   |   |   |   StackOverflowDevices = iOS browser: '(-inf-3.333333]' (0.0)
|   |   |   |   |   |   |   |   StackOverflowDevices = Desktop; iOS browser; iOS app; Android browser: '(-inf-3.333333]' (0.0)
|   |   |   |   |   |   |   |   StackOverflowDevices = Desktop; Android app; Other phone browser: '(-inf-3.333333]' (0.0)
|   |   |   |   |   |   |   |   StackOverflowDevices = Desktop; iOS browser; Android app: '(-inf-3.333333]' (0.0)
|   |   |   |   |   |   |   |   StackOverflowDevices = Android app: '(-inf-3.333333]' (0.0)
|   |   |   |   |   |   |   |   StackOverflowDevices = Android browser; Other phone browser: '(-inf-3.333333]' (0.0)
|   |   |   |   |   |   |   |   StackOverflowDevices = iOS app; Android app; Other phone browser: '(-inf-3.333333]' (0.0)
|   |   |   |   |   |   |   |   StackOverflowDevices = Desktop; iOS browser; iOS app; Other phone browser: '(-inf-3.333333]' (0.0)
|   |   |   |   |   |   |   |   StackOverflowDevices = iOS browser; Android browser; Android app: '(-inf-3.333333]' (0.0)
|   |   |   |   |   |   |   |   StackOverflowDevices = Desktop; iOS app; Android browser: '(-inf-3.333333]' (0.0)
|   |   |   |   |   |   |   |   StackOverflowDevices = iOS browser; iOS app: '(-inf-3.333333]' (0.0)
|   |   |   |   |   |   |   |   StackOverflowDevices = Desktop; iOS browser; Android browser; Android app; Other phone browser: '(-inf-3.333333]' (0.0)
|   |   |   |   |   |   |   |   StackOverflowDevices = Desktop; iOS browser; iOS app; Android browser; Other phone browser: '(-inf-3.333333]' (0.0)
|   |   |   |   |   |   |   |   StackOverflowDevices = Desktop; iOS app; Other phone browser: '(-inf-3.333333]' (0.0)
|   |   |   |   |   |   |   |   StackOverflowDevices = iOS app: '(-inf-3.333333]' (0.0)
|   |   |   |   |   |   |   |   StackOverflowDevices = iOS browser; Android app: '(-inf-3.333333]' (0.0)
|   |   |   |   |   |   |   |   StackOverflowDevices = Desktop; iOS browser; iOS app; Android app: '(-inf-3.333333]' (0.0)
|   |   |   |   |   |   |   |   StackOverflowDevices = iOS app; Android browser; Android app: '(-inf-3.333333]' (0.0)
|   |   |   |   |   |   |   |   StackOverflowDevices = Android browser; Android app: '(-inf-3.333333]' (0.0)
|   |   |   |   |   |   |   |   StackOverflowDevices = iOS browser; Android browser: '(-inf-3.333333]' (0.0)
|   |   |   |   |   |   |   |   StackOverflowDevices = iOS browser; iOS app; Android browser: '(-inf-3.333333]' (0.0)
|   |   |   |   |   |   |   |   StackOverflowDevices = Desktop; iOS app; Android browser; Other phone browser: '(-inf-3.333333]' (0.0)
|   |   |   |   |   |   |   |   StackOverflowDevices = iOS browser; iOS app; Android browser; Android app: '(-inf-3.333333]' (0.0)
|   |   |   |   |   |   |   |   StackOverflowDevices = iOS app; Android browser: '(-inf-3.333333]' (0.0)
|   |   |   |   |   |   |   |   StackOverflowDevices = Android app; Other phone browser: '(-inf-3.333333]' (0.0)
|   |   |   |   |   |   |   |   StackOverflowDevices = iOS app; Other phone browser: '(-inf-3.333333]' (0.0)
|   |   |   |   |   |   |   StackOverflowHelpful > 4: '(-inf-3.333333]' (366.0/3.0)
|   |   |   |   |   StackOverflowCommunity > 0
|   |   |   |   |   |   StackOverflowBetter <= 0
|   |   |   |   |   |   |   StackOverflowMetaChat <= 2
|   |   |   |   |   |   |   |   StackOverflowMakeMoney <= 2
|   |   |   |   |   |   |   |   |   StackOverflowCopiedCode <= 0: '(3.333333-6.666667]' (10.0)
|   |   |   |   |   |   |   |   |   StackOverflowCopiedCode > 0: '(-inf-3.333333]' (40.0)
|   |   |   |   |   |   |   |   StackOverflowMakeMoney > 2: '(-inf-3.333333]' (128.0)
|   |   |   |   |   |   |   StackOverflowMetaChat > 2: '(3.333333-6.666667]' (10.0)
|   |   |   |   |   |   StackOverflowBetter > 0
|   |   |   |   |   |   |   StackOverflowFoundAnswer <= 0
|   |   |   |   |   |   |   |   StackOverflowCopiedCode <= 0
|   |   |   |   |   |   |   |   |   StackOverflowDescribes <= 1: '(3.333333-6.666667]' (8.0)
|   |   |   |   |   |   |   |   |   StackOverflowDescribes > 1: '(-inf-3.333333]' (31.0)
|   |   |   |   |   |   |   |   StackOverflowCopiedCode > 0: '(-inf-3.333333]' (36.0)
|   |   |   |   |   |   |   StackOverflowFoundAnswer > 0
|   |   |   |   |   |   |   |   StackOverflowCommunity <= 6
|   |   |   |   |   |   |   |   |   StackOverflowModeration <= 6: '(3.333333-6.666667]' (228.0)
|   |   |   |   |   |   |   |   |   StackOverflowModeration > 6
|   |   |   |   |   |   |   |   |   |   StackOverflowAdsDistracting <= 4: '(3.333333-6.666667]' (30.0)
|   |   |   |   |   |   |   |   |   |   StackOverflowAdsDistracting > 4: '(-inf-3.333333]' (34.0)
|   |   |   |   |   |   |   |   StackOverflowCommunity > 6
|   |   |   |   |   |   |   |   |   StackOverflowDescribes <= 1
|   |   |   |   |   |   |   |   |   |   StackOverflowDevices = Desktop; iOS app: '(-inf-3.333333]' (0.0)
|   |   |   |   |   |   |   |   |   |   StackOverflowDevices = Desktop; iOS browser; iOS app; Android browser; Android app: '(-inf-3.333333]' (0.0)
|   |   |   |   |   |   |   |   |   |   StackOverflowDevices = Desktop; iOS browser; iOS app: '(-inf-3.333333]' (0.0)
|   |   |   |   |   |   |   |   |   |   StackOverflowDevices = Desktop; iOS browser; Android browser: '(-inf-3.333333]' (0.0)
|   |   |   |   |   |   |   |   |   |   StackOverflowDevices = Desktop: '(-inf-3.333333]' (78.0)
|   |   |   |   |   |   |   |   |   |   StackOverflowDevices = Desktop; Android app: '(-inf-3.333333]' (0.0)
|   |   |   |   |   |   |   |   |   |   StackOverflowDevices = Desktop; Android browser; Android app: '(-inf-3.333333]' (0.0)
|   |   |   |   |   |   |   |   |   |   StackOverflowDevices = Desktop; Android browser: '(3.333333-6.666667]' (6.0)
|   |   |   |   |   |   |   |   |   |   StackOverflowDevices = Desktop; iOS browser: '(-inf-3.333333]' (0.0)
|   |   |   |   |   |   |   |   |   |   StackOverflowDevices = Desktop; Other phone browser: '(-inf-3.333333]' (0.0)
|   |   |   |   |   |   |   |   |   |   StackOverflowDevices = Desktop; Android browser; Other phone browser: '(-inf-3.333333]' (0.0)
|   |   |   |   |   |   |   |   |   |   StackOverflowDevices = Desktop; iOS browser; Android browser; Android app: '(-inf-3.333333]' (0.0)
|   |   |   |   |   |   |   |   |   |   StackOverflowDevices = Desktop; iOS browser; iOS app; Android browser; Android app; Other phone browser: '(-inf-3.333333]' (0.0)
|   |   |   |   |   |   |   |   |   |   StackOverflowDevices = Desktop; Android browser; Android app; Other phone browser: '(-inf-3.333333]' (0.0)
|   |   |   |   |   |   |   |   |   |   StackOverflowDevices = Android browser: '(-inf-3.333333]' (0.0)
|   |   |   |   |   |   |   |   |   |   StackOverflowDevices = Desktop; iOS app; Android app: '(-inf-3.333333]' (0.0)
|   |   |   |   |   |   |   |   |   |   StackOverflowDevices = Desktop; iOS app; Android browser; Android app: '(-inf-3.333333]' (0.0)
|   |   |   |   |   |   |   |   |   |   StackOverflowDevices = Desktop; iOS browser; Android browser; Other phone browser: '(-inf-3.333333]' (0.0)
|   |   |   |   |   |   |   |   |   |   StackOverflowDevices = iOS browser; Other phone browser: '(-inf-3.333333]' (0.0)
|   |   |   |   |   |   |   |   |   |   StackOverflowDevices = Desktop; iOS browser; Other phone browser: '(-inf-3.333333]' (0.0)
|   |   |   |   |   |   |   |   |   |   StackOverflowDevices = Other phone browser: '(-inf-3.333333]' (0.0)
|   |   |   |   |   |   |   |   |   |   StackOverflowDevices = iOS browser: '(-inf-3.333333]' (0.0)
|   |   |   |   |   |   |   |   |   |   StackOverflowDevices = Desktop; iOS browser; iOS app; Android browser: '(-inf-3.333333]' (0.0)
|   |   |   |   |   |   |   |   |   |   StackOverflowDevices = Desktop; Android app; Other phone browser: '(-inf-3.333333]' (0.0)
|   |   |   |   |   |   |   |   |   |   StackOverflowDevices = Desktop; iOS browser; Android app: '(-inf-3.333333]' (0.0)
|   |   |   |   |   |   |   |   |   |   StackOverflowDevices = Android app: '(-inf-3.333333]' (0.0)
|   |   |   |   |   |   |   |   |   |   StackOverflowDevices = Android browser; Other phone browser: '(-inf-3.333333]' (0.0)
|   |   |   |   |   |   |   |   |   |   StackOverflowDevices = iOS app; Android app; Other phone browser: '(-inf-3.333333]' (0.0)
|   |   |   |   |   |   |   |   |   |   StackOverflowDevices = Desktop; iOS browser; iOS app; Other phone browser: '(-inf-3.333333]' (0.0)
|   |   |   |   |   |   |   |   |   |   StackOverflowDevices = iOS browser; Android browser; Android app: '(-inf-3.333333]' (0.0)
|   |   |   |   |   |   |   |   |   |   StackOverflowDevices = Desktop; iOS app; Android browser: '(-inf-3.333333]' (0.0)
|   |   |   |   |   |   |   |   |   |   StackOverflowDevices = iOS browser; iOS app: '(-inf-3.333333]' (0.0)
|   |   |   |   |   |   |   |   |   |   StackOverflowDevices = Desktop; iOS browser; Android browser; Android app; Other phone browser: '(-inf-3.333333]' (0.0)
|   |   |   |   |   |   |   |   |   |   StackOverflowDevices = Desktop; iOS browser; iOS app; Android browser; Other phone browser: '(-inf-3.333333]' (0.0)
|   |   |   |   |   |   |   |   |   |   StackOverflowDevices = Desktop; iOS app; Other phone browser: '(-inf-3.333333]' (0.0)
|   |   |   |   |   |   |   |   |   |   StackOverflowDevices = iOS app: '(-inf-3.333333]' (0.0)
|   |   |   |   |   |   |   |   |   |   StackOverflowDevices = iOS browser; Android app: '(-inf-3.333333]' (0.0)
|   |   |   |   |   |   |   |   |   |   StackOverflowDevices = Desktop; iOS browser; iOS app; Android app: '(-inf-3.333333]' (0.0)
|   |   |   |   |   |   |   |   |   |   StackOverflowDevices = iOS app; Android browser; Android app: '(-inf-3.333333]' (0.0)
|   |   |   |   |   |   |   |   |   |   StackOverflowDevices = Android browser; Android app: '(-inf-3.333333]' (0.0)
|   |   |   |   |   |   |   |   |   |   StackOverflowDevices = iOS browser; Android browser: '(-inf-3.333333]' (0.0)
|   |   |   |   |   |   |   |   |   |   StackOverflowDevices = iOS browser; iOS app; Android browser: '(-inf-3.333333]' (0.0)
|   |   |   |   |   |   |   |   |   |   StackOverflowDevices = Desktop; iOS app; Android browser; Other phone browser: '(-inf-3.333333]' (0.0)
|   |   |   |   |   |   |   |   |   |   StackOverflowDevices = iOS browser; iOS app; Android browser; Android app: '(-inf-3.333333]' (0.0)
|   |   |   |   |   |   |   |   |   |   StackOverflowDevices = iOS app; Android browser: '(-inf-3.333333]' (0.0)
|   |   |   |   |   |   |   |   |   |   StackOverflowDevices = Android app; Other phone browser: '(-inf-3.333333]' (0.0)
|   |   |   |   |   |   |   |   |   |   StackOverflowDevices = iOS app; Other phone browser: '(-inf-3.333333]' (0.0)
|   |   |   |   |   |   |   |   |   StackOverflowDescribes > 1: '(3.333333-6.666667]' (13.0)
|   |   |   |   StackOverflowAdsRelevant > 6: '(3.333333-6.666667]' (25.0)
|   |   |   StackOverflowAnswer > 2
|   |   |   |   StackOverflowJobSearch <= 0: '(-inf-3.333333]' (477.0/8.0)
|   |   |   |   StackOverflowJobSearch > 0
|   |   |   |   |   StackOverflowMetaChat <= 2: '(3.333333-6.666667]' (8.0)
|   |   |   |   |   StackOverflowMetaChat > 2: '(-inf-3.333333]' (39.0)
|   |   StackOverflowJobListing > 2: '(3.333333-6.666667]' (59.0)
StackOverflowBetter > 2
|   StackOverflowModeration <= 6
|   |   StackOverflowHelpful <= 2
|   |   |   StackOverflowCopiedCode <= 2
|   |   |   |   StackOverflowCommunity <= 0
|   |   |   |   |   StackOverflowMakeMoney <= 0: '(3.333333-6.666667]' (42.0)
|   |   |   |   |   StackOverflowMakeMoney > 0
|   |   |   |   |   |   StackOverflowDescribes <= 1
|   |   |   |   |   |   |   StackOverflowFoundAnswer <= 0: '(-inf-3.333333]' (52.0)
|   |   |   |   |   |   |   StackOverflowFoundAnswer > 0: '(3.333333-6.666667]' (11.0)
|   |   |   |   |   |   StackOverflowDescribes > 1
|   |   |   |   |   |   |   StackOverflowJobListing <= 0: '(-inf-3.333333]' (422.0)
|   |   |   |   |   |   |   StackOverflowJobListing > 0
|   |   |   |   |   |   |   |   StackOverflowDescribes <= 2: '(-inf-3.333333]' (35.0)
|   |   |   |   |   |   |   |   StackOverflowDescribes > 2: '(3.333333-6.666667]' (6.0)
|   |   |   |   StackOverflowCommunity > 0
|   |   |   |   |   StackOverflowDescribes <= 2
|   |   |   |   |   |   StackOverflowMakeMoney <= 0: '(-inf-3.333333]' (88.0/1.0)
|   |   |   |   |   |   StackOverflowMakeMoney > 0
|   |   |   |   |   |   |   StackOverflowAnswer <= 2
|   |   |   |   |   |   |   |   StackOverflowCommunity <= 6
|   |   |   |   |   |   |   |   |   StackOverflowMakeMoney <= 6
|   |   |   |   |   |   |   |   |   |   StackOverflowFoundAnswer <= 2: '(3.333333-6.666667]' (63.0)
|   |   |   |   |   |   |   |   |   |   StackOverflowFoundAnswer > 2
|   |   |   |   |   |   |   |   |   |   |   StackOverflowJobListing <= 0
|   |   |   |   |   |   |   |   |   |   |   |   StackOverflowDevices = Desktop; iOS app: '(-inf-3.333333]' (0.0)
|   |   |   |   |   |   |   |   |   |   |   |   StackOverflowDevices = Desktop; iOS browser; iOS app; Android browser; Android app: '(-inf-3.333333]' (0.0)
|   |   |   |   |   |   |   |   |   |   |   |   StackOverflowDevices = Desktop; iOS browser; iOS app: '(-inf-3.333333]' (0.0)
|   |   |   |   |   |   |   |   |   |   |   |   StackOverflowDevices = Desktop; iOS browser; Android browser: '(-inf-3.333333]' (0.0)
|   |   |   |   |   |   |   |   |   |   |   |   StackOverflowDevices = Desktop
|   |   |   |   |   |   |   |   |   |   |   |   |   StackOverflowCopiedCode <= 0
|   |   |   |   |   |   |   |   |   |   |   |   |   |   StackOverflowDescribes <= 1: '(3.333333-6.666667]' (19.0)
|   |   |   |   |   |   |   |   |   |   |   |   |   |   StackOverflowDescribes > 1: '(-inf-3.333333]' (38.0)
|   |   |   |   |   |   |   |   |   |   |   |   |   StackOverflowCopiedCode > 0: '(-inf-3.333333]' (39.0)
|   |   |   |   |   |   |   |   |   |   |   |   StackOverflowDevices = Desktop; Android app: '(-inf-3.333333]' (0.0)
|   |   |   |   |   |   |   |   |   |   |   |   StackOverflowDevices = Desktop; Android browser; Android app: '(3.333333-6.666667]' (6.0)
|   |   |   |   |   |   |   |   |   |   |   |   StackOverflowDevices = Desktop; Android browser: '(-inf-3.333333]' (56.0)
|   |   |   |   |   |   |   |   |   |   |   |   StackOverflowDevices = Desktop; iOS browser: '(3.333333-6.666667]' (5.0)
|   |   |   |   |   |   |   |   |   |   |   |   StackOverflowDevices = Desktop; Other phone browser: '(-inf-3.333333]' (0.0)
|   |   |   |   |   |   |   |   |   |   |   |   StackOverflowDevices = Desktop; Android browser; Other phone browser: '(-inf-3.333333]' (0.0)
|   |   |   |   |   |   |   |   |   |   |   |   StackOverflowDevices = Desktop; iOS browser; Android browser; Android app: '(-inf-3.333333]' (0.0)
|   |   |   |   |   |   |   |   |   |   |   |   StackOverflowDevices = Desktop; iOS browser; iOS app; Android browser; Android app; Other phone browser: '(-inf-3.333333]' (0.0)
|   |   |   |   |   |   |   |   |   |   |   |   StackOverflowDevices = Desktop; Android browser; Android app; Other phone browser: '(-inf-3.333333]' (0.0)
|   |   |   |   |   |   |   |   |   |   |   |   StackOverflowDevices = Android browser: '(-inf-3.333333]' (0.0)
|   |   |   |   |   |   |   |   |   |   |   |   StackOverflowDevices = Desktop; iOS app; Android app: '(-inf-3.333333]' (0.0)
|   |   |   |   |   |   |   |   |   |   |   |   StackOverflowDevices = Desktop; iOS app; Android browser; Android app: '(-inf-3.333333]' (0.0)
|   |   |   |   |   |   |   |   |   |   |   |   StackOverflowDevices = Desktop; iOS browser; Android browser; Other phone browser: '(-inf-3.333333]' (0.0)
|   |   |   |   |   |   |   |   |   |   |   |   StackOverflowDevices = iOS browser; Other phone browser: '(-inf-3.333333]' (0.0)
|   |   |   |   |   |   |   |   |   |   |   |   StackOverflowDevices = Desktop; iOS browser; Other phone browser: '(-inf-3.333333]' (0.0)
|   |   |   |   |   |   |   |   |   |   |   |   StackOverflowDevices = Other phone browser: '(-inf-3.333333]' (0.0)
|   |   |   |   |   |   |   |   |   |   |   |   StackOverflowDevices = iOS browser: '(-inf-3.333333]' (0.0)
|   |   |   |   |   |   |   |   |   |   |   |   StackOverflowDevices = Desktop; iOS browser; iOS app; Android browser: '(-inf-3.333333]' (0.0)
|   |   |   |   |   |   |   |   |   |   |   |   StackOverflowDevices = Desktop; Android app; Other phone browser: '(-inf-3.333333]' (0.0)
|   |   |   |   |   |   |   |   |   |   |   |   StackOverflowDevices = Desktop; iOS browser; Android app: '(-inf-3.333333]' (0.0)
|   |   |   |   |   |   |   |   |   |   |   |   StackOverflowDevices = Android app: '(-inf-3.333333]' (0.0)
|   |   |   |   |   |   |   |   |   |   |   |   StackOverflowDevices = Android browser; Other phone browser: '(-inf-3.333333]' (0.0)
|   |   |   |   |   |   |   |   |   |   |   |   StackOverflowDevices = iOS app; Android app; Other phone browser: '(-inf-3.333333]' (0.0)
|   |   |   |   |   |   |   |   |   |   |   |   StackOverflowDevices = Desktop; iOS browser; iOS app; Other phone browser: '(-inf-3.333333]' (0.0)
|   |   |   |   |   |   |   |   |   |   |   |   StackOverflowDevices = iOS browser; Android browser; Android app: '(-inf-3.333333]' (0.0)
|   |   |   |   |   |   |   |   |   |   |   |   StackOverflowDevices = Desktop; iOS app; Android browser: '(-inf-3.333333]' (0.0)
|   |   |   |   |   |   |   |   |   |   |   |   StackOverflowDevices = iOS browser; iOS app: '(-inf-3.333333]' (0.0)
|   |   |   |   |   |   |   |   |   |   |   |   StackOverflowDevices = Desktop; iOS browser; Android browser; Android app; Other phone browser: '(-inf-3.333333]' (0.0)
|   |   |   |   |   |   |   |   |   |   |   |   StackOverflowDevices = Desktop; iOS browser; iOS app; Android browser; Other phone browser: '(-inf-3.333333]' (0.0)
|   |   |   |   |   |   |   |   |   |   |   |   StackOverflowDevices = Desktop; iOS app; Other phone browser: '(-inf-3.333333]' (0.0)
|   |   |   |   |   |   |   |   |   |   |   |   StackOverflowDevices = iOS app: '(-inf-3.333333]' (0.0)
|   |   |   |   |   |   |   |   |   |   |   |   StackOverflowDevices = iOS browser; Android app: '(-inf-3.333333]' (0.0)
|   |   |   |   |   |   |   |   |   |   |   |   StackOverflowDevices = Desktop; iOS browser; iOS app; Android app: '(-inf-3.333333]' (0.0)
|   |   |   |   |   |   |   |   |   |   |   |   StackOverflowDevices = iOS app; Android browser; Android app: '(-inf-3.333333]' (0.0)
|   |   |   |   |   |   |   |   |   |   |   |   StackOverflowDevices = Android browser; Android app: '(-inf-3.333333]' (0.0)
|   |   |   |   |   |   |   |   |   |   |   |   StackOverflowDevices = iOS browser; Android browser: '(-inf-3.333333]' (0.0)
|   |   |   |   |   |   |   |   |   |   |   |   StackOverflowDevices = iOS browser; iOS app; Android browser: '(-inf-3.333333]' (0.0)
|   |   |   |   |   |   |   |   |   |   |   |   StackOverflowDevices = Desktop; iOS app; Android browser; Other phone browser: '(-inf-3.333333]' (0.0)
|   |   |   |   |   |   |   |   |   |   |   |   StackOverflowDevices = iOS browser; iOS app; Android browser; Android app: '(-inf-3.333333]' (0.0)
|   |   |   |   |   |   |   |   |   |   |   |   StackOverflowDevices = iOS app; Android browser: '(-inf-3.333333]' (0.0)
|   |   |   |   |   |   |   |   |   |   |   |   StackOverflowDevices = Android app; Other phone browser: '(-inf-3.333333]' (0.0)
|   |   |   |   |   |   |   |   |   |   |   |   StackOverflowDevices = iOS app; Other phone browser: '(-inf-3.333333]' (0.0)
|   |   |   |   |   |   |   |   |   |   |   StackOverflowJobListing > 0: '(3.333333-6.666667]' (11.0)
|   |   |   |   |   |   |   |   |   StackOverflowMakeMoney > 6: '(-inf-3.333333]' (41.0)
|   |   |   |   |   |   |   |   StackOverflowCommunity > 6: '(3.333333-6.666667]' (20.0)
|   |   |   |   |   |   |   StackOverflowAnswer > 2: '(3.333333-6.666667]' (25.0)
|   |   |   |   |   StackOverflowDescribes > 2: '(3.333333-6.666667]' (39.0)
|   |   |   StackOverflowCopiedCode > 2: '(3.333333-6.666667]' (46.0)
|   |   StackOverflowHelpful > 2
|   |   |   StackOverflowMakeMoney <= 6
|   |   |   |   StackOverflowAdsRelevant <= 0
|   |   |   |   |   StackOverflowFoundAnswer <= 6
|   |   |   |   |   |   StackOverflowAdsDistracting <= 2
|   |   |   |   |   |   |   StackOverflowMetaChat <= 2
|   |   |   |   |   |   |   |   StackOverflowAnswer <= 2
|   |   |   |   |   |   |   |   |   StackOverflowDevices = Desktop; iOS app: '(-inf-3.333333]' (0.0)
|   |   |   |   |   |   |   |   |   StackOverflowDevices = Desktop; iOS browser; iOS app; Android browser; Android app: '(-inf-3.333333]' (0.0)
|   |   |   |   |   |   |   |   |   StackOverflowDevices = Desktop; iOS browser; iOS app: '(-inf-3.333333]' (0.0)
|   |   |   |   |   |   |   |   |   StackOverflowDevices = Desktop; iOS browser; Android browser: '(3.333333-6.666667]' (15.0)
|   |   |   |   |   |   |   |   |   StackOverflowDevices = Desktop
|   |   |   |   |   |   |   |   |   |   StackOverflowJobListing <= 0
|   |   |   |   |   |   |   |   |   |   |   StackOverflowMetaChat <= 0
|   |   |   |   |   |   |   |   |   |   |   |   StackOverflowNewQuestion <= 2
|   |   |   |   |   |   |   |   |   |   |   |   |   StackOverflowMakeMoney <= 0
|   |   |   |   |   |   |   |   |   |   |   |   |   |   StackOverflowAnswer <= 0
|   |   |   |   |   |   |   |   |   |   |   |   |   |   |   StackOverflowHelpful <= 4
|   |   |   |   |   |   |   |   |   |   |   |   |   |   |   |   StackOverflowFoundAnswer <= 2: '(-inf-3.333333]' (142.0)
|   |   |   |   |   |   |   |   |   |   |   |   |   |   |   |   StackOverflowFoundAnswer > 2: '(3.333333-6.666667]' (9.0)
|   |   |   |   |   |   |   |   |   |   |   |   |   |   |   StackOverflowHelpful > 4
|   |   |   |   |   |   |   |   |   |   |   |   |   |   |   |   StackOverflowFoundAnswer <= 4: '(3.333333-6.666667]' (44.0)
|   |   |   |   |   |   |   |   |   |   |   |   |   |   |   |   StackOverflowFoundAnswer > 4: '(-inf-3.333333]' (88.0)
|   |   |   |   |   |   |   |   |   |   |   |   |   |   StackOverflowAnswer > 0: '(-inf-3.333333]' (50.0)
|   |   |   |   |   |   |   |   |   |   |   |   |   StackOverflowMakeMoney > 0
|   |   |   |   |   |   |   |   |   |   |   |   |   |   StackOverflowModeration <= 4: '(3.333333-6.666667]' (120.0)
|   |   |   |   |   |   |   |   |   |   |   |   |   |   StackOverflowModeration > 4
|   |   |   |   |   |   |   |   |   |   |   |   |   |   |   StackOverflowCommunity <= 2
|   |   |   |   |   |   |   |   |   |   |   |   |   |   |   |   StackOverflowBetter <= 4
|   |   |   |   |   |   |   |   |   |   |   |   |   |   |   |   |   StackOverflowHelpful <= 4
|   |   |   |   |   |   |   |   |   |   |   |   |   |   |   |   |   |   StackOverflowDescribes <= 1: '(-inf-3.333333]' (52.0)
|   |   |   |   |   |   |   |   |   |   |   |   |   |   |   |   |   |   StackOverflowDescribes > 1
|   |   |   |   |   |   |   |   |   |   |   |   |   |   |   |   |   |   |   StackOverflowFoundAnswer <= 4: '(3.333333-6.666667]' (4.0)
|   |   |   |   |   |   |   |   |   |   |   |   |   |   |   |   |   |   |   StackOverflowFoundAnswer > 4: '(-inf-3.333333]' (36.0)
|   |   |   |   |   |   |   |   |   |   |   |   |   |   |   |   |   StackOverflowHelpful > 4: '(3.333333-6.666667]' (15.0)
|   |   |   |   |   |   |   |   |   |   |   |   |   |   |   |   StackOverflowBetter > 4: '(3.333333-6.666667]' (25.0)
|   |   |   |   |   |   |   |   |   |   |   |   |   |   |   StackOverflowCommunity > 2: '(-inf-3.333333]' (51.0)
|   |   |   |   |   |   |   |   |   |   |   |   StackOverflowNewQuestion > 2: '(-inf-3.333333]' (79.0)
|   |   |   |   |   |   |   |   |   |   |   StackOverflowMetaChat > 0: '(-inf-3.333333]' (86.0)
|   |   |   |   |   |   |   |   |   |   StackOverflowJobListing > 0: '(3.333333-6.666667]' (25.0)
|   |   |   |   |   |   |   |   |   StackOverflowDevices = Desktop; Android app: '(3.333333-6.666667]' (10.0)
|   |   |   |   |   |   |   |   |   StackOverflowDevices = Desktop; Android browser; Android app
|   |   |   |   |   |   |   |   |   |   StackOverflowDescribes <= 2: '(3.333333-6.666667]' (9.0)
|   |   |   |   |   |   |   |   |   |   StackOverflowDescribes > 2: '(-inf-3.333333]' (77.0)
|   |   |   |   |   |   |   |   |   StackOverflowDevices = Desktop; Android browser
|   |   |   |   |   |   |   |   |   |   StackOverflowNewQuestion <= 0: '(3.333333-6.666667]' (39.0)
|   |   |   |   |   |   |   |   |   |   StackOverflowNewQuestion > 0: '(-inf-3.333333]' (39.0)
|   |   |   |   |   |   |   |   |   StackOverflowDevices = Desktop; iOS browser
|   |   |   |   |   |   |   |   |   |   StackOverflowWhatDo <= 2
|   |   |   |   |   |   |   |   |   |   |   StackOverflowCopiedCode <= 0
|   |   |   |   |   |   |   |   |   |   |   |   StackOverflowDescribes <= 1: '(3.333333-6.666667]' (6.0)
|   |   |   |   |   |   |   |   |   |   |   |   StackOverflowDescribes > 1
|   |   |   |   |   |   |   |   |   |   |   |   |   StackOverflowAnswer <= 0: '(-inf-3.333333]' (37.0)
|   |   |   |   |   |   |   |   |   |   |   |   |   StackOverflowAnswer > 0
|   |   |   |   |   |   |   |   |   |   |   |   |   |   StackOverflowFoundAnswer <= 2: '(-inf-3.333333]' (28.0)
|   |   |   |   |   |   |   |   |   |   |   |   |   |   StackOverflowFoundAnswer > 2: '(3.333333-6.666667]' (3.0)
|   |   |   |   |   |   |   |   |   |   |   StackOverflowCopiedCode > 0: '(-inf-3.333333]' (82.0)
|   |   |   |   |   |   |   |   |   |   StackOverflowWhatDo > 2: '(3.333333-6.666667]' (28.0)
|   |   |   |   |   |   |   |   |   StackOverflowDevices = Desktop; Other phone browser: '(3.333333-6.666667]' (7.0)
|   |   |   |   |   |   |   |   |   StackOverflowDevices = Desktop; Android browser; Other phone browser: '(-inf-3.333333]' (0.0)
|   |   |   |   |   |   |   |   |   StackOverflowDevices = Desktop; iOS browser; Android browser; Android app: '(-inf-3.333333]' (0.0)
|   |   |   |   |   |   |   |   |   StackOverflowDevices = Desktop; iOS browser; iOS app; Android browser; Android app; Other phone browser: '(-inf-3.333333]' (0.0)
|   |   |   |   |   |   |   |   |   StackOverflowDevices = Desktop; Android browser; Android app; Other phone browser: '(3.333333-6.666667]' (5.0)
|   |   |   |   |   |   |   |   |   StackOverflowDevices = Android browser: '(-inf-3.333333]' (0.0)
|   |   |   |   |   |   |   |   |   StackOverflowDevices = Desktop; iOS app; Android app: '(3.333333-6.666667]' (8.0)
|   |   |   |   |   |   |   |   |   StackOverflowDevices = Desktop; iOS app; Android browser; Android app: '(-inf-3.333333]' (0.0)
|   |   |   |   |   |   |   |   |   StackOverflowDevices = Desktop; iOS browser; Android browser; Other phone browser: '(-inf-3.333333]' (0.0)
|   |   |   |   |   |   |   |   |   StackOverflowDevices = iOS browser; Other phone browser: '(-inf-3.333333]' (0.0)
|   |   |   |   |   |   |   |   |   StackOverflowDevices = Desktop; iOS browser; Other phone browser: '(-inf-3.333333]' (0.0)
|   |   |   |   |   |   |   |   |   StackOverflowDevices = Other phone browser: '(-inf-3.333333]' (0.0)
|   |   |   |   |   |   |   |   |   StackOverflowDevices = iOS browser: '(-inf-3.333333]' (0.0)
|   |   |   |   |   |   |   |   |   StackOverflowDevices = Desktop; iOS browser; iOS app; Android browser: '(-inf-3.333333]' (0.0)
|   |   |   |   |   |   |   |   |   StackOverflowDevices = Desktop; Android app; Other phone browser: '(-inf-3.333333]' (0.0)
|   |   |   |   |   |   |   |   |   StackOverflowDevices = Desktop; iOS browser; Android app: '(-inf-3.333333]' (0.0)
|   |   |   |   |   |   |   |   |   StackOverflowDevices = Android app: '(-inf-3.333333]' (0.0)
|   |   |   |   |   |   |   |   |   StackOverflowDevices = Android browser; Other phone browser: '(-inf-3.333333]' (0.0)
|   |   |   |   |   |   |   |   |   StackOverflowDevices = iOS app; Android app; Other phone browser: '(-inf-3.333333]' (0.0)
|   |   |   |   |   |   |   |   |   StackOverflowDevices = Desktop; iOS browser; iOS app; Other phone browser: '(-inf-3.333333]' (0.0)
|   |   |   |   |   |   |   |   |   StackOverflowDevices = iOS browser; Android browser; Android app: '(-inf-3.333333]' (0.0)
|   |   |   |   |   |   |   |   |   StackOverflowDevices = Desktop; iOS app; Android browser: '(-inf-3.333333]' (0.0)
|   |   |   |   |   |   |   |   |   StackOverflowDevices = iOS browser; iOS app: '(-inf-3.333333]' (0.0)
|   |   |   |   |   |   |   |   |   StackOverflowDevices = Desktop; iOS browser; Android browser; Android app; Other phone browser: '(-inf-3.333333]' (0.0)
|   |   |   |   |   |   |   |   |   StackOverflowDevices = Desktop; iOS browser; iOS app; Android browser; Other phone browser: '(-inf-3.333333]' (0.0)
|   |   |   |   |   |   |   |   |   StackOverflowDevices = Desktop; iOS app; Other phone browser: '(-inf-3.333333]' (0.0)
|   |   |   |   |   |   |   |   |   StackOverflowDevices = iOS app: '(-inf-3.333333]' (0.0)
|   |   |   |   |   |   |   |   |   StackOverflowDevices = iOS browser; Android app: '(-inf-3.333333]' (0.0)
|   |   |   |   |   |   |   |   |   StackOverflowDevices = Desktop; iOS browser; iOS app; Android app: '(-inf-3.333333]' (0.0)
|   |   |   |   |   |   |   |   |   StackOverflowDevices = iOS app; Android browser; Android app: '(-inf-3.333333]' (0.0)
|   |   |   |   |   |   |   |   |   StackOverflowDevices = Android browser; Android app: '(-inf-3.333333]' (0.0)
|   |   |   |   |   |   |   |   |   StackOverflowDevices = iOS browser; Android browser: '(-inf-3.333333]' (0.0)
|   |   |   |   |   |   |   |   |   StackOverflowDevices = iOS browser; iOS app; Android browser: '(-inf-3.333333]' (0.0)
|   |   |   |   |   |   |   |   |   StackOverflowDevices = Desktop; iOS app; Android browser; Other phone browser: '(-inf-3.333333]' (0.0)
|   |   |   |   |   |   |   |   |   StackOverflowDevices = iOS browser; iOS app; Android browser; Android app: '(-inf-3.333333]' (0.0)
|   |   |   |   |   |   |   |   |   StackOverflowDevices = iOS app; Android browser: '(-inf-3.333333]' (0.0)
|   |   |   |   |   |   |   |   |   StackOverflowDevices = Android app; Other phone browser: '(-inf-3.333333]' (0.0)
|   |   |   |   |   |   |   |   |   StackOverflowDevices = iOS app; Other phone browser: '(-inf-3.333333]' (0.0)
|   |   |   |   |   |   |   |   StackOverflowAnswer > 2
|   |   |   |   |   |   |   |   |   StackOverflowMetaChat <= 0: '(3.333333-6.666667]' (69.0)
|   |   |   |   |   |   |   |   |   StackOverflowMetaChat > 0
|   |   |   |   |   |   |   |   |   |   StackOverflowDevices = Desktop; iOS app: '(-inf-3.333333]' (0.0)
|   |   |   |   |   |   |   |   |   |   StackOverflowDevices = Desktop; iOS browser; iOS app; Android browser; Android app: '(-inf-3.333333]' (0.0)
|   |   |   |   |   |   |   |   |   |   StackOverflowDevices = Desktop; iOS browser; iOS app: '(-inf-3.333333]' (0.0)
|   |   |   |   |   |   |   |   |   |   StackOverflowDevices = Desktop; iOS browser; Android browser: '(-inf-3.333333]' (0.0)
|   |   |   |   |   |   |   |   |   |   StackOverflowDevices = Desktop: '(-inf-3.333333]' (0.0)
|   |   |   |   |   |   |   |   |   |   StackOverflowDevices = Desktop; Android app: '(-inf-3.333333]' (0.0)
|   |   |   |   |   |   |   |   |   |   StackOverflowDevices = Desktop; Android browser; Android app: '(-inf-3.333333]' (28.0)
|   |   |   |   |   |   |   |   |   |   StackOverflowDevices = Desktop; Android browser: '(3.333333-6.666667]' (6.0)
|   |   |   |   |   |   |   |   |   |   StackOverflowDevices = Desktop; iOS browser: '(-inf-3.333333]' (0.0)
|   |   |   |   |   |   |   |   |   |   StackOverflowDevices = Desktop; Other phone browser: '(-inf-3.333333]' (0.0)
|   |   |   |   |   |   |   |   |   |   StackOverflowDevices = Desktop; Android browser; Other phone browser: '(-inf-3.333333]' (0.0)
|   |   |   |   |   |   |   |   |   |   StackOverflowDevices = Desktop; iOS browser; Android browser; Android app: '(-inf-3.333333]' (0.0)
|   |   |   |   |   |   |   |   |   |   StackOverflowDevices = Desktop; iOS browser; iOS app; Android browser; Android app; Other phone browser: '(-inf-3.333333]' (0.0)
|   |   |   |   |   |   |   |   |   |   StackOverflowDevices = Desktop; Android browser; Android app; Other phone browser: '(-inf-3.333333]' (0.0)
|   |   |   |   |   |   |   |   |   |   StackOverflowDevices = Android browser: '(-inf-3.333333]' (0.0)
|   |   |   |   |   |   |   |   |   |   StackOverflowDevices = Desktop; iOS app; Android app: '(-inf-3.333333]' (0.0)
|   |   |   |   |   |   |   |   |   |   StackOverflowDevices = Desktop; iOS app; Android browser; Android app: '(-inf-3.333333]' (0.0)
|   |   |   |   |   |   |   |   |   |   StackOverflowDevices = Desktop; iOS browser; Android browser; Other phone browser: '(-inf-3.333333]' (0.0)
|   |   |   |   |   |   |   |   |   |   StackOverflowDevices = iOS browser; Other phone browser: '(-inf-3.333333]' (0.0)
|   |   |   |   |   |   |   |   |   |   StackOverflowDevices = Desktop; iOS browser; Other phone browser: '(-inf-3.333333]' (0.0)
|   |   |   |   |   |   |   |   |   |   StackOverflowDevices = Other phone browser: '(-inf-3.333333]' (0.0)
|   |   |   |   |   |   |   |   |   |   StackOverflowDevices = iOS browser: '(-inf-3.333333]' (0.0)
|   |   |   |   |   |   |   |   |   |   StackOverflowDevices = Desktop; iOS browser; iOS app; Android browser: '(-inf-3.333333]' (0.0)
|   |   |   |   |   |   |   |   |   |   StackOverflowDevices = Desktop; Android app; Other phone browser: '(-inf-3.333333]' (0.0)
|   |   |   |   |   |   |   |   |   |   StackOverflowDevices = Desktop; iOS browser; Android app: '(-inf-3.333333]' (0.0)
|   |   |   |   |   |   |   |   |   |   StackOverflowDevices = Android app: '(-inf-3.333333]' (0.0)
|   |   |   |   |   |   |   |   |   |   StackOverflowDevices = Android browser; Other phone browser: '(-inf-3.333333]' (0.0)
|   |   |   |   |   |   |   |   |   |   StackOverflowDevices = iOS app; Android app; Other phone browser: '(-inf-3.333333]' (0.0)
|   |   |   |   |   |   |   |   |   |   StackOverflowDevices = Desktop; iOS browser; iOS app; Other phone browser: '(-inf-3.333333]' (0.0)
|   |   |   |   |   |   |   |   |   |   StackOverflowDevices = iOS browser; Android browser; Android app: '(-inf-3.333333]' (0.0)
|   |   |   |   |   |   |   |   |   |   StackOverflowDevices = Desktop; iOS app; Android browser: '(-inf-3.333333]' (0.0)
|   |   |   |   |   |   |   |   |   |   StackOverflowDevices = iOS browser; iOS app: '(-inf-3.333333]' (0.0)
|   |   |   |   |   |   |   |   |   |   StackOverflowDevices = Desktop; iOS browser; Android browser; Android app; Other phone browser: '(-inf-3.333333]' (0.0)
|   |   |   |   |   |   |   |   |   |   StackOverflowDevices = Desktop; iOS browser; iOS app; Android browser; Other phone browser: '(-inf-3.333333]' (0.0)
|   |   |   |   |   |   |   |   |   |   StackOverflowDevices = Desktop; iOS app; Other phone browser: '(-inf-3.333333]' (0.0)
|   |   |   |   |   |   |   |   |   |   StackOverflowDevices = iOS app: '(-inf-3.333333]' (0.0)
|   |   |   |   |   |   |   |   |   |   StackOverflowDevices = iOS browser; Android app: '(-inf-3.333333]' (0.0)
|   |   |   |   |   |   |   |   |   |   StackOverflowDevices = Desktop; iOS browser; iOS app; Android app: '(-inf-3.333333]' (0.0)
|   |   |   |   |   |   |   |   |   |   StackOverflowDevices = iOS app; Android browser; Android app: '(-inf-3.333333]' (0.0)
|   |   |   |   |   |   |   |   |   |   StackOverflowDevices = Android browser; Android app: '(-inf-3.333333]' (0.0)
|   |   |   |   |   |   |   |   |   |   StackOverflowDevices = iOS browser; Android browser: '(-inf-3.333333]' (0.0)
|   |   |   |   |   |   |   |   |   |   StackOverflowDevices = iOS browser; iOS app; Android browser: '(-inf-3.333333]' (0.0)
|   |   |   |   |   |   |   |   |   |   StackOverflowDevices = Desktop; iOS app; Android browser; Other phone browser: '(-inf-3.333333]' (0.0)
|   |   |   |   |   |   |   |   |   |   StackOverflowDevices = iOS browser; iOS app; Android browser; Android app: '(-inf-3.333333]' (0.0)
|   |   |   |   |   |   |   |   |   |   StackOverflowDevices = iOS app; Android browser: '(-inf-3.333333]' (0.0)
|   |   |   |   |   |   |   |   |   |   StackOverflowDevices = Android app; Other phone browser: '(-inf-3.333333]' (0.0)
|   |   |   |   |   |   |   |   |   |   StackOverflowDevices = iOS app; Other phone browser: '(-inf-3.333333]' (0.0)
|   |   |   |   |   |   |   StackOverflowMetaChat > 2: '(3.333333-6.666667]' (46.0)
|   |   |   |   |   |   StackOverflowAdsDistracting > 2
|   |   |   |   |   |   |   StackOverflowMetaChat <= 0
|   |   |   |   |   |   |   |   StackOverflowFoundAnswer <= 2
|   |   |   |   |   |   |   |   |   StackOverflowAdsDistracting <= 6
|   |   |   |   |   |   |   |   |   |   StackOverflowDevices = Desktop; iOS app: '(-inf-3.333333]' (0.0)
|   |   |   |   |   |   |   |   |   |   StackOverflowDevices = Desktop; iOS browser; iOS app; Android browser; Android app: '(-inf-3.333333]' (0.0)
|   |   |   |   |   |   |   |   |   |   StackOverflowDevices = Desktop; iOS browser; iOS app: '(-inf-3.333333]' (0.0)
|   |   |   |   |   |   |   |   |   |   StackOverflowDevices = Desktop; iOS browser; Android browser: '(-inf-3.333333]' (0.0)
|   |   |   |   |   |   |   |   |   |   StackOverflowDevices = Desktop
|   |   |   |   |   |   |   |   |   |   |   StackOverflowHelpful <= 4
|   |   |   |   |   |   |   |   |   |   |   |   StackOverflowNewQuestion <= 0
|   |   |   |   |   |   |   |   |   |   |   |   |   StackOverflowMakeMoney <= 2
|   |   |   |   |   |   |   |   |   |   |   |   |   |   StackOverflowDescribes <= 1
|   |   |   |   |   |   |   |   |   |   |   |   |   |   |   StackOverflowCopiedCode <= 0
|   |   |   |   |   |   |   |   |   |   |   |   |   |   |   |   StackOverflowFoundAnswer <= 0: '(-inf-3.333333]' (33.0)
|   |   |   |   |   |   |   |   |   |   |   |   |   |   |   |   StackOverflowFoundAnswer > 0: '(3.333333-6.666667]' (12.0)
|   |   |   |   |   |   |   |   |   |   |   |   |   |   |   StackOverflowCopiedCode > 0: '(-inf-3.333333]' (44.0)
|   |   |   |   |   |   |   |   |   |   |   |   |   |   StackOverflowDescribes > 1: '(3.333333-6.666667]' (20.0)
|   |   |   |   |   |   |   |   |   |   |   |   |   StackOverflowMakeMoney > 2: '(3.333333-6.666667]' (13.0)
|   |   |   |   |   |   |   |   |   |   |   |   StackOverflowNewQuestion > 0: '(-inf-3.333333]' (33.0)
|   |   |   |   |   |   |   |   |   |   |   StackOverflowHelpful > 4: '(3.333333-6.666667]' (39.0)
|   |   |   |   |   |   |   |   |   |   StackOverflowDevices = Desktop; Android app: '(-inf-3.333333]' (0.0)
|   |   |   |   |   |   |   |   |   |   StackOverflowDevices = Desktop; Android browser; Android app: '(-inf-3.333333]' (0.0)
|   |   |   |   |   |   |   |   |   |   StackOverflowDevices = Desktop; Android browser: '(3.333333-6.666667]' (17.0)
|   |   |   |   |   |   |   |   |   |   StackOverflowDevices = Desktop; iOS browser: '(-inf-3.333333]' (33.0)
|   |   |   |   |   |   |   |   |   |   StackOverflowDevices = Desktop; Other phone browser: '(-inf-3.333333]' (0.0)
|   |   |   |   |   |   |   |   |   |   StackOverflowDevices = Desktop; Android browser; Other phone browser: '(-inf-3.333333]' (0.0)
|   |   |   |   |   |   |   |   |   |   StackOverflowDevices = Desktop; iOS browser; Android browser; Android app: '(-inf-3.333333]' (0.0)
|   |   |   |   |   |   |   |   |   |   StackOverflowDevices = Desktop; iOS browser; iOS app; Android browser; Android app; Other phone browser: '(3.333333-6.666667]' (6.0)
|   |   |   |   |   |   |   |   |   |   StackOverflowDevices = Desktop; Android browser; Android app; Other phone browser: '(3.333333-6.666667]' (3.0)
|   |   |   |   |   |   |   |   |   |   StackOverflowDevices = Android browser: '(-inf-3.333333]' (0.0)
|   |   |   |   |   |   |   |   |   |   StackOverflowDevices = Desktop; iOS app; Android app: '(-inf-3.333333]' (0.0)
|   |   |   |   |   |   |   |   |   |   StackOverflowDevices = Desktop; iOS app; Android browser; Android app: '(-inf-3.333333]' (0.0)
|   |   |   |   |   |   |   |   |   |   StackOverflowDevices = Desktop; iOS browser; Android browser; Other phone browser: '(-inf-3.333333]' (0.0)
|   |   |   |   |   |   |   |   |   |   StackOverflowDevices = iOS browser; Other phone browser: '(-inf-3.333333]' (0.0)
|   |   |   |   |   |   |   |   |   |   StackOverflowDevices = Desktop; iOS browser; Other phone browser: '(-inf-3.333333]' (0.0)
|   |   |   |   |   |   |   |   |   |   StackOverflowDevices = Other phone browser: '(-inf-3.333333]' (0.0)
|   |   |   |   |   |   |   |   |   |   StackOverflowDevices = iOS browser: '(-inf-3.333333]' (0.0)
|   |   |   |   |   |   |   |   |   |   StackOverflowDevices = Desktop; iOS browser; iOS app; Android browser: '(-inf-3.333333]' (0.0)
|   |   |   |   |   |   |   |   |   |   StackOverflowDevices = Desktop; Android app; Other phone browser: '(-inf-3.333333]' (0.0)
|   |   |   |   |   |   |   |   |   |   StackOverflowDevices = Desktop; iOS browser; Android app: '(-inf-3.333333]' (0.0)
|   |   |   |   |   |   |   |   |   |   StackOverflowDevices = Android app: '(-inf-3.333333]' (0.0)
|   |   |   |   |   |   |   |   |   |   StackOverflowDevices = Android browser; Other phone browser: '(-inf-3.333333]' (0.0)
|   |   |   |   |   |   |   |   |   |   StackOverflowDevices = iOS app; Android app; Other phone browser: '(-inf-3.333333]' (0.0)
|   |   |   |   |   |   |   |   |   |   StackOverflowDevices = Desktop; iOS browser; iOS app; Other phone browser: '(-inf-3.333333]' (0.0)
|   |   |   |   |   |   |   |   |   |   StackOverflowDevices = iOS browser; Android browser; Android app: '(-inf-3.333333]' (0.0)
|   |   |   |   |   |   |   |   |   |   StackOverflowDevices = Desktop; iOS app; Android browser: '(-inf-3.333333]' (0.0)
|   |   |   |   |   |   |   |   |   |   StackOverflowDevices = iOS browser; iOS app: '(-inf-3.333333]' (0.0)
|   |   |   |   |   |   |   |   |   |   StackOverflowDevices = Desktop; iOS browser; Android browser; Android app; Other phone browser: '(-inf-3.333333]' (0.0)
|   |   |   |   |   |   |   |   |   |   StackOverflowDevices = Desktop; iOS browser; iOS app; Android browser; Other phone browser: '(-inf-3.333333]' (0.0)
|   |   |   |   |   |   |   |   |   |   StackOverflowDevices = Desktop; iOS app; Other phone browser: '(-inf-3.333333]' (0.0)
|   |   |   |   |   |   |   |   |   |   StackOverflowDevices = iOS app: '(-inf-3.333333]' (0.0)
|   |   |   |   |   |   |   |   |   |   StackOverflowDevices = iOS browser; Android app: '(-inf-3.333333]' (0.0)
|   |   |   |   |   |   |   |   |   |   StackOverflowDevices = Desktop; iOS browser; iOS app; Android app: '(-inf-3.333333]' (0.0)
|   |   |   |   |   |   |   |   |   |   StackOverflowDevices = iOS app; Android browser; Android app: '(-inf-3.333333]' (0.0)
|   |   |   |   |   |   |   |   |   |   StackOverflowDevices = Android browser; Android app: '(-inf-3.333333]' (0.0)
|   |   |   |   |   |   |   |   |   |   StackOverflowDevices = iOS browser; Android browser: '(-inf-3.333333]' (0.0)
|   |   |   |   |   |   |   |   |   |   StackOverflowDevices = iOS browser; iOS app; Android browser: '(-inf-3.333333]' (0.0)
|   |   |   |   |   |   |   |   |   |   StackOverflowDevices = Desktop; iOS app; Android browser; Other phone browser: '(-inf-3.333333]' (0.0)
|   |   |   |   |   |   |   |   |   |   StackOverflowDevices = iOS browser; iOS app; Android browser; Android app: '(-inf-3.333333]' (0.0)
|   |   |   |   |   |   |   |   |   |   StackOverflowDevices = iOS app; Android browser: '(-inf-3.333333]' (0.0)
|   |   |   |   |   |   |   |   |   |   StackOverflowDevices = Android app; Other phone browser: '(-inf-3.333333]' (0.0)
|   |   |   |   |   |   |   |   |   |   StackOverflowDevices = iOS app; Other phone browser: '(-inf-3.333333]' (0.0)
|   |   |   |   |   |   |   |   |   StackOverflowAdsDistracting > 6: '(3.333333-6.666667]' (85.0)
|   |   |   |   |   |   |   |   StackOverflowFoundAnswer > 2: '(3.333333-6.666667]' (366.0)
|   |   |   |   |   |   |   StackOverflowMetaChat > 0
|   |   |   |   |   |   |   |   StackOverflowWhatDo <= 0: '(3.333333-6.666667]' (29.0)
|   |   |   |   |   |   |   |   StackOverflowWhatDo > 0
|   |   |   |   |   |   |   |   |   StackOverflowHelpful <= 4: '(3.333333-6.666667]' (20.0)
|   |   |   |   |   |   |   |   |   StackOverflowHelpful > 4
|   |   |   |   |   |   |   |   |   |   StackOverflowHelpful <= 6
|   |   |   |   |   |   |   |   |   |   |   StackOverflowDevices = Desktop; iOS app: '(-inf-3.333333]' (0.0)
|   |   |   |   |   |   |   |   |   |   |   StackOverflowDevices = Desktop; iOS browser; iOS app; Android browser; Android app: '(-inf-3.333333]' (0.0)
|   |   |   |   |   |   |   |   |   |   |   StackOverflowDevices = Desktop; iOS browser; iOS app: '(-inf-3.333333]' (41.0)
|   |   |   |   |   |   |   |   |   |   |   StackOverflowDevices = Desktop; iOS browser; Android browser: '(-inf-3.333333]' (0.0)
|   |   |   |   |   |   |   |   |   |   |   StackOverflowDevices = Desktop: '(-inf-3.333333]' (136.0)
|   |   |   |   |   |   |   |   |   |   |   StackOverflowDevices = Desktop; Android app: '(-inf-3.333333]' (35.0)
|   |   |   |   |   |   |   |   |   |   |   StackOverflowDevices = Desktop; Android browser; Android app: '(-inf-3.333333]' (0.0)
|   |   |   |   |   |   |   |   |   |   |   StackOverflowDevices = Desktop; Android browser: '(3.333333-6.666667]' (16.0)
|   |   |   |   |   |   |   |   |   |   |   StackOverflowDevices = Desktop; iOS browser: '(-inf-3.333333]' (0.0)
|   |   |   |   |   |   |   |   |   |   |   StackOverflowDevices = Desktop; Other phone browser: '(-inf-3.333333]' (0.0)
|   |   |   |   |   |   |   |   |   |   |   StackOverflowDevices = Desktop; Android browser; Other phone browser: '(-inf-3.333333]' (0.0)
|   |   |   |   |   |   |   |   |   |   |   StackOverflowDevices = Desktop; iOS browser; Android browser; Android app: '(-inf-3.333333]' (0.0)
|   |   |   |   |   |   |   |   |   |   |   StackOverflowDevices = Desktop; iOS browser; iOS app; Android browser; Android app; Other phone browser: '(-inf-3.333333]' (0.0)
|   |   |   |   |   |   |   |   |   |   |   StackOverflowDevices = Desktop; Android browser; Android app; Other phone browser: '(-inf-3.333333]' (0.0)
|   |   |   |   |   |   |   |   |   |   |   StackOverflowDevices = Android browser: '(-inf-3.333333]' (0.0)
|   |   |   |   |   |   |   |   |   |   |   StackOverflowDevices = Desktop; iOS app; Android app: '(-inf-3.333333]' (0.0)
|   |   |   |   |   |   |   |   |   |   |   StackOverflowDevices = Desktop; iOS app; Android browser; Android app: '(-inf-3.333333]' (0.0)
|   |   |   |   |   |   |   |   |   |   |   StackOverflowDevices = Desktop; iOS browser; Android browser; Other phone browser: '(-inf-3.333333]' (0.0)
|   |   |   |   |   |   |   |   |   |   |   StackOverflowDevices = iOS browser; Other phone browser: '(-inf-3.333333]' (0.0)
|   |   |   |   |   |   |   |   |   |   |   StackOverflowDevices = Desktop; iOS browser; Other phone browser: '(-inf-3.333333]' (0.0)
|   |   |   |   |   |   |   |   |   |   |   StackOverflowDevices = Other phone browser: '(-inf-3.333333]' (0.0)
|   |   |   |   |   |   |   |   |   |   |   StackOverflowDevices = iOS browser: '(-inf-3.333333]' (0.0)
|   |   |   |   |   |   |   |   |   |   |   StackOverflowDevices = Desktop; iOS browser; iOS app; Android browser: '(-inf-3.333333]' (0.0)
|   |   |   |   |   |   |   |   |   |   |   StackOverflowDevices = Desktop; Android app; Other phone browser: '(-inf-3.333333]' (0.0)
|   |   |   |   |   |   |   |   |   |   |   StackOverflowDevices = Desktop; iOS browser; Android app: '(-inf-3.333333]' (0.0)
|   |   |   |   |   |   |   |   |   |   |   StackOverflowDevices = Android app: '(-inf-3.333333]' (0.0)
|   |   |   |   |   |   |   |   |   |   |   StackOverflowDevices = Android browser; Other phone browser: '(-inf-3.333333]' (0.0)
|   |   |   |   |   |   |   |   |   |   |   StackOverflowDevices = iOS app; Android app; Other phone browser: '(-inf-3.333333]' (0.0)
|   |   |   |   |   |   |   |   |   |   |   StackOverflowDevices = Desktop; iOS browser; iOS app; Other phone browser: '(-inf-3.333333]' (0.0)
|   |   |   |   |   |   |   |   |   |   |   StackOverflowDevices = iOS browser; Android browser; Android app: '(-inf-3.333333]' (0.0)
|   |   |   |   |   |   |   |   |   |   |   StackOverflowDevices = Desktop; iOS app; Android browser: '(-inf-3.333333]' (0.0)
|   |   |   |   |   |   |   |   |   |   |   StackOverflowDevices = iOS browser; iOS app: '(-inf-3.333333]' (0.0)
|   |   |   |   |   |   |   |   |   |   |   StackOverflowDevices = Desktop; iOS browser; Android browser; Android app; Other phone browser: '(-inf-3.333333]' (0.0)
|   |   |   |   |   |   |   |   |   |   |   StackOverflowDevices = Desktop; iOS browser; iOS app; Android browser; Other phone browser: '(-inf-3.333333]' (0.0)
|   |   |   |   |   |   |   |   |   |   |   StackOverflowDevices = Desktop; iOS app; Other phone browser: '(-inf-3.333333]' (0.0)
|   |   |   |   |   |   |   |   |   |   |   StackOverflowDevices = iOS app: '(-inf-3.333333]' (0.0)
|   |   |   |   |   |   |   |   |   |   |   StackOverflowDevices = iOS browser; Android app: '(-inf-3.333333]' (0.0)
|   |   |   |   |   |   |   |   |   |   |   StackOverflowDevices = Desktop; iOS browser; iOS app; Android app: '(-inf-3.333333]' (0.0)
|   |   |   |   |   |   |   |   |   |   |   StackOverflowDevices = iOS app; Android browser; Android app: '(-inf-3.333333]' (0.0)
|   |   |   |   |   |   |   |   |   |   |   StackOverflowDevices = Android browser; Android app: '(-inf-3.333333]' (0.0)
|   |   |   |   |   |   |   |   |   |   |   StackOverflowDevices = iOS browser; Android browser: '(-inf-3.333333]' (0.0)
|   |   |   |   |   |   |   |   |   |   |   StackOverflowDevices = iOS browser; iOS app; Android browser: '(-inf-3.333333]' (0.0)
|   |   |   |   |   |   |   |   |   |   |   StackOverflowDevices = Desktop; iOS app; Android browser; Other phone browser: '(-inf-3.333333]' (0.0)
|   |   |   |   |   |   |   |   |   |   |   StackOverflowDevices = iOS browser; iOS app; Android browser; Android app: '(-inf-3.333333]' (0.0)
|   |   |   |   |   |   |   |   |   |   |   StackOverflowDevices = iOS app; Android browser: '(-inf-3.333333]' (0.0)
|   |   |   |   |   |   |   |   |   |   |   StackOverflowDevices = Android app; Other phone browser: '(-inf-3.333333]' (0.0)
|   |   |   |   |   |   |   |   |   |   |   StackOverflowDevices = iOS app; Other phone browser: '(-inf-3.333333]' (0.0)
|   |   |   |   |   |   |   |   |   |   StackOverflowHelpful > 6: '(3.333333-6.666667]' (14.0)
|   |   |   |   |   StackOverflowFoundAnswer > 6: '(3.333333-6.666667]' (70.0)
|   |   |   |   StackOverflowAdsRelevant > 0
|   |   |   |   |   StackOverflowCommunity <= 0
|   |   |   |   |   |   StackOverflowBetter <= 4
|   |   |   |   |   |   |   StackOverflowMetaChat <= 0
|   |   |   |   |   |   |   |   StackOverflowFoundAnswer <= 6
|   |   |   |   |   |   |   |   |   StackOverflowFoundAnswer <= 4
|   |   |   |   |   |   |   |   |   |   StackOverflowCopiedCode <= 4
|   |   |   |   |   |   |   |   |   |   |   StackOverflowWhatDo <= 0
|   |   |   |   |   |   |   |   |   |   |   |   StackOverflowAdsRelevant <= 4: '(3.333333-6.666667]' (149.0)
|   |   |   |   |   |   |   |   |   |   |   |   StackOverflowAdsRelevant > 4: '(-inf-3.333333]' (51.0)
|   |   |   |   |   |   |   |   |   |   |   StackOverflowWhatDo > 0
|   |   |   |   |   |   |   |   |   |   |   |   StackOverflowAdsDistracting <= 2
|   |   |   |   |   |   |   |   |   |   |   |   |   StackOverflowDescribes <= 1
|   |   |   |   |   |   |   |   |   |   |   |   |   |   StackOverflowMakeMoney <= 2: '(3.333333-6.666667]' (68.0)
|   |   |   |   |   |   |   |   |   |   |   |   |   |   StackOverflowMakeMoney > 2
|   |   |   |   |   |   |   |   |   |   |   |   |   |   |   StackOverflowDevices = Desktop; iOS app: '(-inf-3.333333]' (0.0)
|   |   |   |   |   |   |   |   |   |   |   |   |   |   |   StackOverflowDevices = Desktop; iOS browser; iOS app; Android browser; Android app: '(-inf-3.333333]' (0.0)
|   |   |   |   |   |   |   |   |   |   |   |   |   |   |   StackOverflowDevices = Desktop; iOS browser; iOS app: '(-inf-3.333333]' (0.0)
|   |   |   |   |   |   |   |   |   |   |   |   |   |   |   StackOverflowDevices = Desktop; iOS browser; Android browser: '(-inf-3.333333]' (0.0)
|   |   |   |   |   |   |   |   |   |   |   |   |   |   |   StackOverflowDevices = Desktop: '(3.333333-6.666667]' (10.0)
|   |   |   |   |   |   |   |   |   |   |   |   |   |   |   StackOverflowDevices = Desktop; Android app: '(-inf-3.333333]' (0.0)
|   |   |   |   |   |   |   |   |   |   |   |   |   |   |   StackOverflowDevices = Desktop; Android browser; Android app: '(-inf-3.333333]' (0.0)
|   |   |   |   |   |   |   |   |   |   |   |   |   |   |   StackOverflowDevices = Desktop; Android browser: '(-inf-3.333333]' (42.0)
|   |   |   |   |   |   |   |   |   |   |   |   |   |   |   StackOverflowDevices = Desktop; iOS browser: '(-inf-3.333333]' (0.0)
|   |   |   |   |   |   |   |   |   |   |   |   |   |   |   StackOverflowDevices = Desktop; Other phone browser: '(-inf-3.333333]' (0.0)
|   |   |   |   |   |   |   |   |   |   |   |   |   |   |   StackOverflowDevices = Desktop; Android browser; Other phone browser: '(-inf-3.333333]' (0.0)
|   |   |   |   |   |   |   |   |   |   |   |   |   |   |   StackOverflowDevices = Desktop; iOS browser; Android browser; Android app: '(-inf-3.333333]' (0.0)
|   |   |   |   |   |   |   |   |   |   |   |   |   |   |   StackOverflowDevices = Desktop; iOS browser; iOS app; Android browser; Android app; Other phone browser: '(-inf-3.333333]' (0.0)
|   |   |   |   |   |   |   |   |   |   |   |   |   |   |   StackOverflowDevices = Desktop; Android browser; Android app; Other phone browser: '(-inf-3.333333]' (0.0)
|   |   |   |   |   |   |   |   |   |   |   |   |   |   |   StackOverflowDevices = Android browser: '(-inf-3.333333]' (0.0)
|   |   |   |   |   |   |   |   |   |   |   |   |   |   |   StackOverflowDevices = Desktop; iOS app; Android app: '(-inf-3.333333]' (0.0)
|   |   |   |   |   |   |   |   |   |   |   |   |   |   |   StackOverflowDevices = Desktop; iOS app; Android browser; Android app: '(-inf-3.333333]' (0.0)
|   |   |   |   |   |   |   |   |   |   |   |   |   |   |   StackOverflowDevices = Desktop; iOS browser; Android browser; Other phone browser: '(-inf-3.333333]' (0.0)
|   |   |   |   |   |   |   |   |   |   |   |   |   |   |   StackOverflowDevices = iOS browser; Other phone browser: '(-inf-3.333333]' (0.0)
|   |   |   |   |   |   |   |   |   |   |   |   |   |   |   StackOverflowDevices = Desktop; iOS browser; Other phone browser: '(-inf-3.333333]' (0.0)
|   |   |   |   |   |   |   |   |   |   |   |   |   |   |   StackOverflowDevices = Other phone browser: '(-inf-3.333333]' (0.0)
|   |   |   |   |   |   |   |   |   |   |   |   |   |   |   StackOverflowDevices = iOS browser: '(-inf-3.333333]' (0.0)
|   |   |   |   |   |   |   |   |   |   |   |   |   |   |   StackOverflowDevices = Desktop; iOS browser; iOS app; Android browser: '(-inf-3.333333]' (0.0)
|   |   |   |   |   |   |   |   |   |   |   |   |   |   |   StackOverflowDevices = Desktop; Android app; Other phone browser: '(-inf-3.333333]' (0.0)
|   |   |   |   |   |   |   |   |   |   |   |   |   |   |   StackOverflowDevices = Desktop; iOS browser; Android app: '(-inf-3.333333]' (0.0)
|   |   |   |   |   |   |   |   |   |   |   |   |   |   |   StackOverflowDevices = Android app: '(-inf-3.333333]' (0.0)
|   |   |   |   |   |   |   |   |   |   |   |   |   |   |   StackOverflowDevices = Android browser; Other phone browser: '(-inf-3.333333]' (0.0)
|   |   |   |   |   |   |   |   |   |   |   |   |   |   |   StackOverflowDevices = iOS app; Android app; Other phone browser: '(-inf-3.333333]' (0.0)
|   |   |   |   |   |   |   |   |   |   |   |   |   |   |   StackOverflowDevices = Desktop; iOS browser; iOS app; Other phone browser: '(-inf-3.333333]' (0.0)
|   |   |   |   |   |   |   |   |   |   |   |   |   |   |   StackOverflowDevices = iOS browser; Android browser; Android app: '(-inf-3.333333]' (0.0)
|   |   |   |   |   |   |   |   |   |   |   |   |   |   |   StackOverflowDevices = Desktop; iOS app; Android browser: '(-inf-3.333333]' (0.0)
|   |   |   |   |   |   |   |   |   |   |   |   |   |   |   StackOverflowDevices = iOS browser; iOS app: '(-inf-3.333333]' (0.0)
|   |   |   |   |   |   |   |   |   |   |   |   |   |   |   StackOverflowDevices = Desktop; iOS browser; Android browser; Android app; Other phone browser: '(-inf-3.333333]' (0.0)
|   |   |   |   |   |   |   |   |   |   |   |   |   |   |   StackOverflowDevices = Desktop; iOS browser; iOS app; Android browser; Other phone browser: '(-inf-3.333333]' (0.0)
|   |   |   |   |   |   |   |   |   |   |   |   |   |   |   StackOverflowDevices = Desktop; iOS app; Other phone browser: '(-inf-3.333333]' (0.0)
|   |   |   |   |   |   |   |   |   |   |   |   |   |   |   StackOverflowDevices = iOS app: '(-inf-3.333333]' (0.0)
|   |   |   |   |   |   |   |   |   |   |   |   |   |   |   StackOverflowDevices = iOS browser; Android app: '(-inf-3.333333]' (0.0)
|   |   |   |   |   |   |   |   |   |   |   |   |   |   |   StackOverflowDevices = Desktop; iOS browser; iOS app; Android app: '(-inf-3.333333]' (0.0)
|   |   |   |   |   |   |   |   |   |   |   |   |   |   |   StackOverflowDevices = iOS app; Android browser; Android app: '(-inf-3.333333]' (0.0)
|   |   |   |   |   |   |   |   |   |   |   |   |   |   |   StackOverflowDevices = Android browser; Android app: '(-inf-3.333333]' (0.0)
|   |   |   |   |   |   |   |   |   |   |   |   |   |   |   StackOverflowDevices = iOS browser; Android browser: '(-inf-3.333333]' (0.0)
|   |   |   |   |   |   |   |   |   |   |   |   |   |   |   StackOverflowDevices = iOS browser; iOS app; Android browser: '(-inf-3.333333]' (0.0)
|   |   |   |   |   |   |   |   |   |   |   |   |   |   |   StackOverflowDevices = Desktop; iOS app; Android browser; Other phone browser: '(-inf-3.333333]' (0.0)
|   |   |   |   |   |   |   |   |   |   |   |   |   |   |   StackOverflowDevices = iOS browser; iOS app; Android browser; Android app: '(-inf-3.333333]' (0.0)
|   |   |   |   |   |   |   |   |   |   |   |   |   |   |   StackOverflowDevices = iOS app; Android browser: '(-inf-3.333333]' (0.0)
|   |   |   |   |   |   |   |   |   |   |   |   |   |   |   StackOverflowDevices = Android app; Other phone browser: '(-inf-3.333333]' (0.0)
|   |   |   |   |   |   |   |   |   |   |   |   |   |   |   StackOverflowDevices = iOS app; Other phone browser: '(-inf-3.333333]' (0.0)
|   |   |   |   |   |   |   |   |   |   |   |   |   StackOverflowDescribes > 1
|   |   |   |   |   |   |   |   |   |   |   |   |   |   StackOverflowDevices = Desktop; iOS app: '(-inf-3.333333]' (0.0)
|   |   |   |   |   |   |   |   |   |   |   |   |   |   StackOverflowDevices = Desktop; iOS browser; iOS app; Android browser; Android app: '(-inf-3.333333]' (0.0)
|   |   |   |   |   |   |   |   |   |   |   |   |   |   StackOverflowDevices = Desktop; iOS browser; iOS app: '(-inf-3.333333]' (41.0)
|   |   |   |   |   |   |   |   |   |   |   |   |   |   StackOverflowDevices = Desktop; iOS browser; Android browser: '(-inf-3.333333]' (32.0)
|   |   |   |   |   |   |   |   |   |   |   |   |   |   StackOverflowDevices = Desktop
|   |   |   |   |   |   |   |   |   |   |   |   |   |   |   StackOverflowMakeMoney <= 2
|   |   |   |   |   |   |   |   |   |   |   |   |   |   |   |   StackOverflowWhatDo <= 2
|   |   |   |   |   |   |   |   |   |   |   |   |   |   |   |   |   StackOverflowAdsRelevant <= 2
|   |   |   |   |   |   |   |   |   |   |   |   |   |   |   |   |   |   StackOverflowAnswer <= 0
|   |   |   |   |   |   |   |   |   |   |   |   |   |   |   |   |   |   |   StackOverflowDescribes <= 2
|   |   |   |   |   |   |   |   |   |   |   |   |   |   |   |   |   |   |   |   StackOverflowCopiedCode <= 2: '(-inf-3.333333]' (94.0)
|   |   |   |   |   |   |   |   |   |   |   |   |   |   |   |   |   |   |   |   StackOverflowCopiedCode > 2: '(3.333333-6.666667]' (4.0)
|   |   |   |   |   |   |   |   |   |   |   |   |   |   |   |   |   |   |   StackOverflowDescribes > 2: '(3.333333-6.666667]' (7.0)
|   |   |   |   |   |   |   |   |   |   |   |   |   |   |   |   |   |   StackOverflowAnswer > 0: '(3.333333-6.666667]' (10.0)
|   |   |   |   |   |   |   |   |   |   |   |   |   |   |   |   |   StackOverflowAdsRelevant > 2: '(-inf-3.333333]' (81.0)
|   |   |   |   |   |   |   |   |   |   |   |   |   |   |   |   StackOverflowWhatDo > 2
|   |   |   |   |   |   |   |   |   |   |   |   |   |   |   |   |   StackOverflowDescribes <= 2: '(3.333333-6.666667]' (19.0)
|   |   |   |   |   |   |   |   |   |   |   |   |   |   |   |   |   StackOverflowDescribes > 2
|   |   |   |   |   |   |   |   |   |   |   |   |   |   |   |   |   |   StackOverflowCopiedCode <= 0: '(-inf-3.333333]' (38.0)
|   |   |   |   |   |   |   |   |   |   |   |   |   |   |   |   |   |   StackOverflowCopiedCode > 0: '(3.333333-6.666667]' (6.0)
|   |   |   |   |   |   |   |   |   |   |   |   |   |   |   StackOverflowMakeMoney > 2: '(3.333333-6.666667]' (40.0)
|   |   |   |   |   |   |   |   |   |   |   |   |   |   StackOverflowDevices = Desktop; Android app: '(3.333333-6.666667]' (8.0)
|   |   |   |   |   |   |   |   |   |   |   |   |   |   StackOverflowDevices = Desktop; Android browser; Android app: '(3.333333-6.666667]' (8.0)
|   |   |   |   |   |   |   |   |   |   |   |   |   |   StackOverflowDevices = Desktop; Android browser
|   |   |   |   |   |   |   |   |   |   |   |   |   |   |   StackOverflowCopiedCode <= 0: '(-inf-3.333333]' (99.0)
|   |   |   |   |   |   |   |   |   |   |   |   |   |   |   StackOverflowCopiedCode > 0: '(3.333333-6.666667]' (25.0)
|   |   |   |   |   |   |   |   |   |   |   |   |   |   StackOverflowDevices = Desktop; iOS browser
|   |   |   |   |   |   |   |   |   |   |   |   |   |   |   StackOverflowAdsRelevant <= 2: '(3.333333-6.666667]' (5.0)
|   |   |   |   |   |   |   |   |   |   |   |   |   |   |   StackOverflowAdsRelevant > 2: '(-inf-3.333333]' (74.0)
|   |   |   |   |   |   |   |   |   |   |   |   |   |   StackOverflowDevices = Desktop; Other phone browser: '(-inf-3.333333]' (0.0)
|   |   |   |   |   |   |   |   |   |   |   |   |   |   StackOverflowDevices = Desktop; Android browser; Other phone browser: '(-inf-3.333333]' (0.0)
|   |   |   |   |   |   |   |   |   |   |   |   |   |   StackOverflowDevices = Desktop; iOS browser; Android browser; Android app: '(-inf-3.333333]' (0.0)
|   |   |   |   |   |   |   |   |   |   |   |   |   |   StackOverflowDevices = Desktop; iOS browser; iOS app; Android browser; Android app; Other phone browser: '(-inf-3.333333]' (0.0)
|   |   |   |   |   |   |   |   |   |   |   |   |   |   StackOverflowDevices = Desktop; Android browser; Android app; Other phone browser: '(-inf-3.333333]' (0.0)
|   |   |   |   |   |   |   |   |   |   |   |   |   |   StackOverflowDevices = Android browser: '(-inf-3.333333]' (0.0)
|   |   |   |   |   |   |   |   |   |   |   |   |   |   StackOverflowDevices = Desktop; iOS app; Android app: '(-inf-3.333333]' (0.0)
|   |   |   |   |   |   |   |   |   |   |   |   |   |   StackOverflowDevices = Desktop; iOS app; Android browser; Android app: '(-inf-3.333333]' (0.0)
|   |   |   |   |   |   |   |   |   |   |   |   |   |   StackOverflowDevices = Desktop; iOS browser; Android browser; Other phone browser: '(-inf-3.333333]' (0.0)
|   |   |   |   |   |   |   |   |   |   |   |   |   |   StackOverflowDevices = iOS browser; Other phone browser: '(-inf-3.333333]' (0.0)
|   |   |   |   |   |   |   |   |   |   |   |   |   |   StackOverflowDevices = Desktop; iOS browser; Other phone browser: '(-inf-3.333333]' (0.0)
|   |   |   |   |   |   |   |   |   |   |   |   |   |   StackOverflowDevices = Other phone browser: '(-inf-3.333333]' (0.0)
|   |   |   |   |   |   |   |   |   |   |   |   |   |   StackOverflowDevices = iOS browser: '(-inf-3.333333]' (0.0)
|   |   |   |   |   |   |   |   |   |   |   |   |   |   StackOverflowDevices = Desktop; iOS browser; iOS app; Android browser: '(-inf-3.333333]' (0.0)
|   |   |   |   |   |   |   |   |   |   |   |   |   |   StackOverflowDevices = Desktop; Android app; Other phone browser: '(-inf-3.333333]' (0.0)
|   |   |   |   |   |   |   |   |   |   |   |   |   |   StackOverflowDevices = Desktop; iOS browser; Android app: '(-inf-3.333333]' (0.0)
|   |   |   |   |   |   |   |   |   |   |   |   |   |   StackOverflowDevices = Android app: '(-inf-3.333333]' (0.0)
|   |   |   |   |   |   |   |   |   |   |   |   |   |   StackOverflowDevices = Android browser; Other phone browser: '(-inf-3.333333]' (0.0)
|   |   |   |   |   |   |   |   |   |   |   |   |   |   StackOverflowDevices = iOS app; Android app; Other phone browser: '(-inf-3.333333]' (0.0)
|   |   |   |   |   |   |   |   |   |   |   |   |   |   StackOverflowDevices = Desktop; iOS browser; iOS app; Other phone browser: '(-inf-3.333333]' (0.0)
|   |   |   |   |   |   |   |   |   |   |   |   |   |   StackOverflowDevices = iOS browser; Android browser; Android app: '(-inf-3.333333]' (0.0)
|   |   |   |   |   |   |   |   |   |   |   |   |   |   StackOverflowDevices = Desktop; iOS app; Android browser: '(-inf-3.333333]' (0.0)
|   |   |   |   |   |   |   |   |   |   |   |   |   |   StackOverflowDevices = iOS browser; iOS app: '(-inf-3.333333]' (0.0)
|   |   |   |   |   |   |   |   |   |   |   |   |   |   StackOverflowDevices = Desktop; iOS browser; Android browser; Android app; Other phone browser: '(-inf-3.333333]' (0.0)
|   |   |   |   |   |   |   |   |   |   |   |   |   |   StackOverflowDevices = Desktop; iOS browser; iOS app; Android browser; Other phone browser: '(-inf-3.333333]' (0.0)
|   |   |   |   |   |   |   |   |   |   |   |   |   |   StackOverflowDevices = Desktop; iOS app; Other phone browser: '(-inf-3.333333]' (0.0)
|   |   |   |   |   |   |   |   |   |   |   |   |   |   StackOverflowDevices = iOS app: '(-inf-3.333333]' (0.0)
|   |   |   |   |   |   |   |   |   |   |   |   |   |   StackOverflowDevices = iOS browser; Android app: '(-inf-3.333333]' (0.0)
|   |   |   |   |   |   |   |   |   |   |   |   |   |   StackOverflowDevices = Desktop; iOS browser; iOS app; Android app: '(-inf-3.333333]' (0.0)
|   |   |   |   |   |   |   |   |   |   |   |   |   |   StackOverflowDevices = iOS app; Android browser; Android app: '(-inf-3.333333]' (0.0)
|   |   |   |   |   |   |   |   |   |   |   |   |   |   StackOverflowDevices = Android browser; Android app: '(-inf-3.333333]' (0.0)
|   |   |   |   |   |   |   |   |   |   |   |   |   |   StackOverflowDevices = iOS browser; Android browser: '(-inf-3.333333]' (0.0)
|   |   |   |   |   |   |   |   |   |   |   |   |   |   StackOverflowDevices = iOS browser; iOS app; Android browser: '(-inf-3.333333]' (0.0)
|   |   |   |   |   |   |   |   |   |   |   |   |   |   StackOverflowDevices = Desktop; iOS app; Android browser; Other phone browser: '(-inf-3.333333]' (0.0)
|   |   |   |   |   |   |   |   |   |   |   |   |   |   StackOverflowDevices = iOS browser; iOS app; Android browser; Android app: '(-inf-3.333333]' (0.0)
|   |   |   |   |   |   |   |   |   |   |   |   |   |   StackOverflowDevices = iOS app; Android browser: '(-inf-3.333333]' (0.0)
|   |   |   |   |   |   |   |   |   |   |   |   |   |   StackOverflowDevices = Android app; Other phone browser: '(-inf-3.333333]' (0.0)
|   |   |   |   |   |   |   |   |   |   |   |   |   |   StackOverflowDevices = iOS app; Other phone browser: '(-inf-3.333333]' (0.0)
|   |   |   |   |   |   |   |   |   |   |   |   StackOverflowAdsDistracting > 2: '(3.333333-6.666667]' (96.0)
|   |   |   |   |   |   |   |   |   |   StackOverflowCopiedCode > 4: '(-inf-3.333333]' (38.0)
|   |   |   |   |   |   |   |   |   StackOverflowFoundAnswer > 4: '(3.333333-6.666667]' (153.0)
|   |   |   |   |   |   |   |   StackOverflowFoundAnswer > 6
|   |   |   |   |   |   |   |   |   StackOverflowCopiedCode <= 4: '(-inf-3.333333]' (88.0)
|   |   |   |   |   |   |   |   |   StackOverflowCopiedCode > 4: '(3.333333-6.666667]' (7.0)
|   |   |   |   |   |   |   StackOverflowMetaChat > 0: '(3.333333-6.666667]' (25.0)
|   |   |   |   |   |   StackOverflowBetter > 4
|   |   |   |   |   |   |   StackOverflowModeration <= 2: '(3.333333-6.666667]' (445.0)
|   |   |   |   |   |   |   StackOverflowModeration > 2
|   |   |   |   |   |   |   |   StackOverflowFoundAnswer <= 4
|   |   |   |   |   |   |   |   |   StackOverflowDescribes <= 1: '(3.333333-6.666667]' (52.0)
|   |   |   |   |   |   |   |   |   StackOverflowDescribes > 1
|   |   |   |   |   |   |   |   |   |   StackOverflowHelpful <= 6
|   |   |   |   |   |   |   |   |   |   |   StackOverflowDevices = Desktop; iOS app: '(3.333333-6.666667]' (5.0)
|   |   |   |   |   |   |   |   |   |   |   StackOverflowDevices = Desktop; iOS browser; iOS app; Android browser; Android app: '(-inf-3.333333]' (0.0)
|   |   |   |   |   |   |   |   |   |   |   StackOverflowDevices = Desktop; iOS browser; iOS app: '(3.333333-6.666667]' (8.0)
|   |   |   |   |   |   |   |   |   |   |   StackOverflowDevices = Desktop; iOS browser; Android browser: '(3.333333-6.666667]' (6.0)
|   |   |   |   |   |   |   |   |   |   |   StackOverflowDevices = Desktop
|   |   |   |   |   |   |   |   |   |   |   |   StackOverflowNewQuestion <= 2
|   |   |   |   |   |   |   |   |   |   |   |   |   StackOverflowMakeMoney <= 4
|   |   |   |   |   |   |   |   |   |   |   |   |   |   StackOverflowAdsDistracting <= 0
|   |   |   |   |   |   |   |   |   |   |   |   |   |   |   StackOverflowDescribes <= 2: '(-inf-3.333333]' (82.0)
|   |   |   |   |   |   |   |   |   |   |   |   |   |   |   StackOverflowDescribes > 2: '(3.333333-6.666667]' (5.0)
|   |   |   |   |   |   |   |   |   |   |   |   |   |   StackOverflowAdsDistracting > 0: '(3.333333-6.666667]' (39.0)
|   |   |   |   |   |   |   |   |   |   |   |   |   StackOverflowMakeMoney > 4: '(-inf-3.333333]' (53.0)
|   |   |   |   |   |   |   |   |   |   |   |   StackOverflowNewQuestion > 2: '(-inf-3.333333]' (71.0)
|   |   |   |   |   |   |   |   |   |   |   StackOverflowDevices = Desktop; Android app: '(3.333333-6.666667]' (8.0)
|   |   |   |   |   |   |   |   |   |   |   StackOverflowDevices = Desktop; Android browser; Android app: '(-inf-3.333333]' (0.0)
|   |   |   |   |   |   |   |   |   |   |   StackOverflowDevices = Desktop; Android browser: '(3.333333-6.666667]' (23.0)
|   |   |   |   |   |   |   |   |   |   |   StackOverflowDevices = Desktop; iOS browser: '(-inf-3.333333]' (0.0)
|   |   |   |   |   |   |   |   |   |   |   StackOverflowDevices = Desktop; Other phone browser: '(-inf-3.333333]' (0.0)
|   |   |   |   |   |   |   |   |   |   |   StackOverflowDevices = Desktop; Android browser; Other phone browser: '(-inf-3.333333]' (0.0)
|   |   |   |   |   |   |   |   |   |   |   StackOverflowDevices = Desktop; iOS browser; Android browser; Android app: '(-inf-3.333333]' (0.0)
|   |   |   |   |   |   |   |   |   |   |   StackOverflowDevices = Desktop; iOS browser; iOS app; Android browser; Android app; Other phone browser: '(-inf-3.333333]' (0.0)
|   |   |   |   |   |   |   |   |   |   |   StackOverflowDevices = Desktop; Android browser; Android app; Other phone browser: '(-inf-3.333333]' (0.0)
|   |   |   |   |   |   |   |   |   |   |   StackOverflowDevices = Android browser: '(-inf-3.333333]' (0.0)
|   |   |   |   |   |   |   |   |   |   |   StackOverflowDevices = Desktop; iOS app; Android app: '(-inf-3.333333]' (0.0)
|   |   |   |   |   |   |   |   |   |   |   StackOverflowDevices = Desktop; iOS app; Android browser; Android app: '(-inf-3.333333]' (0.0)
|   |   |   |   |   |   |   |   |   |   |   StackOverflowDevices = Desktop; iOS browser; Android browser; Other phone browser: '(-inf-3.333333]' (0.0)
|   |   |   |   |   |   |   |   |   |   |   StackOverflowDevices = iOS browser; Other phone browser: '(-inf-3.333333]' (0.0)
|   |   |   |   |   |   |   |   |   |   |   StackOverflowDevices = Desktop; iOS browser; Other phone browser: '(-inf-3.333333]' (0.0)
|   |   |   |   |   |   |   |   |   |   |   StackOverflowDevices = Other phone browser: '(-inf-3.333333]' (0.0)
|   |   |   |   |   |   |   |   |   |   |   StackOverflowDevices = iOS browser: '(-inf-3.333333]' (0.0)
|   |   |   |   |   |   |   |   |   |   |   StackOverflowDevices = Desktop; iOS browser; iOS app; Android browser: '(-inf-3.333333]' (0.0)
|   |   |   |   |   |   |   |   |   |   |   StackOverflowDevices = Desktop; Android app; Other phone browser: '(-inf-3.333333]' (0.0)
|   |   |   |   |   |   |   |   |   |   |   StackOverflowDevices = Desktop; iOS browser; Android app: '(-inf-3.333333]' (0.0)
|   |   |   |   |   |   |   |   |   |   |   StackOverflowDevices = Android app: '(-inf-3.333333]' (0.0)
|   |   |   |   |   |   |   |   |   |   |   StackOverflowDevices = Android browser; Other phone browser: '(-inf-3.333333]' (0.0)
|   |   |   |   |   |   |   |   |   |   |   StackOverflowDevices = iOS app; Android app; Other phone browser: '(-inf-3.333333]' (0.0)
|   |   |   |   |   |   |   |   |   |   |   StackOverflowDevices = Desktop; iOS browser; iOS app; Other phone browser: '(-inf-3.333333]' (0.0)
|   |   |   |   |   |   |   |   |   |   |   StackOverflowDevices = iOS browser; Android browser; Android app: '(-inf-3.333333]' (0.0)
|   |   |   |   |   |   |   |   |   |   |   StackOverflowDevices = Desktop; iOS app; Android browser: '(-inf-3.333333]' (0.0)
|   |   |   |   |   |   |   |   |   |   |   StackOverflowDevices = iOS browser; iOS app: '(-inf-3.333333]' (0.0)
|   |   |   |   |   |   |   |   |   |   |   StackOverflowDevices = Desktop; iOS browser; Android browser; Android app; Other phone browser: '(-inf-3.333333]' (0.0)
|   |   |   |   |   |   |   |   |   |   |   StackOverflowDevices = Desktop; iOS browser; iOS app; Android browser; Other phone browser: '(-inf-3.333333]' (0.0)
|   |   |   |   |   |   |   |   |   |   |   StackOverflowDevices = Desktop; iOS app; Other phone browser: '(-inf-3.333333]' (0.0)
|   |   |   |   |   |   |   |   |   |   |   StackOverflowDevices = iOS app: '(-inf-3.333333]' (0.0)
|   |   |   |   |   |   |   |   |   |   |   StackOverflowDevices = iOS browser; Android app: '(-inf-3.333333]' (0.0)
|   |   |   |   |   |   |   |   |   |   |   StackOverflowDevices = Desktop; iOS browser; iOS app; Android app: '(-inf-3.333333]' (0.0)
|   |   |   |   |   |   |   |   |   |   |   StackOverflowDevices = iOS app; Android browser; Android app: '(-inf-3.333333]' (0.0)
|   |   |   |   |   |   |   |   |   |   |   StackOverflowDevices = Android browser; Android app: '(-inf-3.333333]' (0.0)
|   |   |   |   |   |   |   |   |   |   |   StackOverflowDevices = iOS browser; Android browser: '(-inf-3.333333]' (0.0)
